{"learner":{"attributes":{"scikit_learn":"{\"_estimator_type\": \"classifier\"}"},"feature_names":[],"feature_types":[],"gradient_booster":{"model":{"cats":{"enc":[],"feature_segments":[],"sorted_idx":[]},"gbtree_model_param":{"num_parallel_tree":"1","num_trees":"200"},"iteration_indptr":[0,1,2,3,4,5,6,7,8,9,10,11,12,13,14,15,16,17,18,19,20,21,22,23,24,25,26,27,28,29,30,31,32,33,34,35,36,37,38,39,40,41,42,43,44,45,46,47,48,49,50,51,52,53,54,55,56,57,58,59,60,61,62,63,64,65,66,67,68,69,70,71,72,73,74,75,76,77,78,79,80,81,82,83,84,85,86,87,88,89,90,91,92,93,94,95,96,97,98,99,100,101,102,103,104,105,106,107,108,109,110,111,112,113,114,115,116,117,118,119,120,121,122,123,124,125,126,127,128,129,130,131,132,133,134,135,136,137,138,139,140,141,142,143,144,145,146,147,148,149,150,151,152,153,154,155,156,157,158,159,160,161,162,163,164,165,166,167,168,169,170,171,172,173,174,175,176,177,178,179,180,181,182,183,184,185,186,187,188,189,190,191,192,193,194,195,196,197,198,199,200],"tree_info":[0,0,0,0,0,0,0,0,0,0,0,0,0,0,0,0,0,0,0,0,0,0,0,0,0,0,0,0,0,0,0,0,0,0,0,0,0,0,0,0,0,0,0,0,0,0,0,0,0,0,0,0,0,0,0,0,0,0,0,0,0,0,0,0,0,0,0,0,0,0,0,0,0,0,0,0,0,0,0,0,0,0,0,0,0,0,0,0,0,0,0,0,0,0,0,0,0,0,0,0,0,0,0,0,0,0,0,0,0,0,0,0,0,0,0,0,0,0,0,0,0,0,0,0,0,0,0,0,0,0,0,0,0,0,0,0,0,0,0,0,0,0,0,0,0,0,0,0,0,0,0,0,0,0,0,0,0,0,0,0,0,0,0,0,0,0,0,0,0,0,0,0,0,0,0,0,0,0,0,0,0,0,0,0,0,0,0,0,0,0,0,0,0,0,0,0,0,0,0,0],"trees":[{"base_weights":[-7.5323274E-3,1.7441417E0,-1.9896357E0,-1.7258141E0,1.9733713E0,-1.9985865E-1,1.5153846E-1,-1.9786261E-1,1.726087E-1,1.9801055E0,1.3013333E0,9.967213E-2,1.9819777E-1,-3.815385E-2,1.8534884E-1],"categories":[],"categories_nodes":[],"categories_segments":[],"categories_sizes":[],"default_left":[0,0,0,0,0,0,0,0,0,0,0,0,0,0,0],"id":0,"left_children":[1,3,5,7,9,-1,-1,-1,-1,11,13,-1,-1,-1,-1],"loss_changes":[1.1020146E4,1.3436416E3,4.9793945E1,9.499936E1,4.25E0,0E0,0E0,0E0,0E0,6.0498047E-1,1.8276985E1,0E0,0E0,0E0,0E0],"parents":[2147483647,0,0,1,1,2,2,3,3,4,4,9,9,10,10],"right_children":[2,4,6,8,10,-1,-1,-1,-1,12,14,-1,-1,-1,-1],"split_conditions":[1.9830348E-1,2.8462128E-3,2.1134351E-1,2.5791168E-1,1.8811928E-1,-1.9985865E-1,1.5153846E-1,-1.9786261E-1,1.726087E-1,5.1934298E-2,6.075838E-1,9.967213E-2,1.9819777E-1,-3.815385E-2,1.8534884E-1],"split_indices":[2,1,1,4,2,0,0,0,0,4,1,0,0,0,0],"split_type":[0,0,0,0,0,0,0,0,0,0,0,0,0,0,0],"sum_hessian":[3.172E3,1.6839166E3,1.4880834E3,1.03916664E2,1.58E3,1.48475E3,3.3333333E0,9.725E1,6.6666665E0,1.56225E3,1.775E1,4.083333E0,1.5581666E3,4.4166665E0,1.3333333E1],"tree_param":{"num_deleted":"0","num_feature":"6","num_nodes":"15","size_leaf_vector":"1"}},{"base_weights":[2.9278882E-3,1.6176504E0,-1.7976369E0,6.3951576E-1,1.7616885E0,-1.8177147E-1,1.3768342E-1,1.2691374E0,-1.7943367E-1,1.4882789E0,1.795514E-1,1.5018797E0,6.613818E-2,4.9837506E-1,1.6832573E0,8.171002E-1,1.8017147E-1,-1.012706E0,1.3541815E0,1.719959E-1,-1.6838358E-1,1.7230242E0,9.341052E-1,-4.9181398E-2,1.397674E-1,-2.9866848E-4,-1.6665702E-1,6.598507E-2,1.6126631E-1,9.033527E-2,1.7412199E-1,-2.0647123E-3,1.4975496E-1],"categories":[],"categories_nodes":[],"categories_segments":[],"categories_sizes":[],"default_left":[0,0,0,0,0,0,0,0,0,0,0,0,0,0,0,0,0,0,0,0,0,0,0,0,0,0,0,0,0,0,0,0,0],"id":1,"left_children":[1,3,5,7,9,-1,-1,11,-1,13,-1,15,17,19,21,23,-1,25,27,-1,-1,29,31,-1,-1,-1,-1,-1,-1,-1,-1,-1,-1],"loss_changes":[9.272127E3,2.3551855E2,9.864697E1,3.3548187E2,1.0546875E1,0E0,0E0,4.8292664E1,0E0,3.1262177E1,0E0,2.807257E1,4.201534E1,8.0365295E1,2.2773743E0,3.5839973E1,0E0,1.0677752E1,1.1836681E0,0E0,0E0,1.1721802E-1,5.201419E0,0E0,0E0,0E0,0E0,0E0,0E0,0E0,0E0,0E0,0E0],"parents":[2147483647,0,0,1,1,2,2,3,3,4,4,7,7,9,9,11,11,12,12,13,13,14,14,15,15,17,17,18,18,21,21,22,22],"right_children":[2,4,6,8,10,-1,-1,12,-1,14,-1,16,18,20,22,24,-1,26,28,-1,-1,30,32,-1,-1,-1,-1,-1,-1,-1,-1,-1,-1],"split_conditions":[1.9357039E-1,1.0622971E-1,5.383742E-1,1.06806085E-1,4.822507E-2,-1.8177147E-1,1.3768342E-1,1E-1,-1.7943367E-1,2.005514E-1,1.795514E-1,3.971328E-2,6.961265E-2,1.8131377E-1,1.7279634E-1,5.49366E-2,1.8017147E-1,3.2922164E-2,1E0,1.719959E-1,-1.6838358E-1,7.320442E-3,5.7593715E-1,-4.9181398E-2,1.397674E-1,-2.9866848E-4,-1.6665702E-1,6.598507E-2,1.6126631E-1,9.033527E-2,1.7412199E-1,-2.0647123E-3,1.4975496E-1],"split_indices":[2,0,0,2,3,0,0,0,0,0,0,0,3,0,2,3,0,2,5,0,0,2,0,0,0,0,0,0,0,0,0,0,0],"split_type":[0,0,0,0,0,0,0,0,0,0,0,0,0,0,0,0,0,0,0,0,0,0,0,0,0,0,0,0,0,0,0,0,0],"sum_hessian":[3.1871394E3,1.6803663E3,1.5067731E3,2.1647316E2,1.4638932E3,1.4977589E3,9.014132E0,1.7239528E2,4.4077885E1,1.6644853E2,1.2974447E3,1.4417113E2,2.822414E1,2.805953E1,1.38389E2,4.5138977E1,9.903216E1,1.54334545E1,1.2790685E1,1.8154463E1,9.905067E0,1.3005206E2,8.336946E0,1.3863685E1,3.1275293E1,6.5210032E0,8.912452E0,4.538656E0,8.252028E0,4.0435185E0,1.26008545E2,3.3857288E0,4.9512167E0],"tree_param":{"num_deleted":"0","num_feature":"6","num_nodes":"33","size_leaf_vector":"1"}},{"base_weights":[8.814406E-3,1.4844544E0,-1.6738689E0,-1.4373989E0,1.6659132E0,-1.6816415E-1,1.3153115E-1,-1.7294E-1,1.5392567E-1,1.6722636E-1,1.107232E0,-1.4030387E-1,1.6607046E-1],"categories":[],"categories_nodes":[],"categories_segments":[],"categories_sizes":[],"default_left":[0,0,0,0,0,0,0,0,0,0,0,0,0],"id":2,"left_children":[1,3,5,7,9,-1,-1,-1,-1,-1,11,-1,-1],"loss_changes":[7.6574565E3,8.735669E2,3.572461E1,8.662631E1,3.3608398E0,0E0,0E0,0E0,0E0,0E0,3.087761E1,0E0,0E0],"parents":[2147483647,0,0,1,1,2,2,3,3,4,4,10,10],"right_children":[2,4,6,8,10,-1,-1,-1,-1,-1,12,-1,-1],"split_conditions":[1.9830348E-1,2.8462128E-3,2.1134351E-1,2.5791168E-1,1.8811928E-1,-1.6816415E-1,1.3153115E-1,-1.7294E-1,1.5392567E-1,1.6722636E-1,2.1134351E-1,-1.4030387E-1,1.6607046E-1],"split_indices":[2,1,1,4,2,0,0,0,0,0,1,0,0],"split_type":[0,0,0,0,0,0,0,0,0,0,0,0,0],"sum_hessian":[3.0819172E3,1.6420703E3,1.4398469E3,9.55792E1,1.5464911E3,1.4365824E3,3.264586E0,8.745294E1,8.126263E0,1.5269624E3,1.9528648E1,3.2179608E0,1.6310688E1],"tree_param":{"num_deleted":"0","num_feature":"6","num_nodes":"13","size_leaf_vector":"1"}},{"base_weights":[5.9857364E-3,1.3770207E0,-1.57225E0,4.6214134E-1,1.5662189E0,-1.5759704E-1,-3.5902858E-2,-1.6589892E-1,1.5735649E-1,1.3472744E0,1.5796827E-1,-1.481718E-1,1.55844E-1],"categories":[],"categories_nodes":[],"categories_segments":[],"categories_sizes":[],"default_left":[0,0,0,0,0,0,0,0,0,0,0,0,0],"id":3,"left_children":[1,3,5,7,9,-1,-1,-1,-1,11,-1,-1,-1],"loss_changes":[6.446891E3,2.7505298E2,5.4919434E0,6.502715E2,1.472168E0,0E0,0E0,0E0,0E0,5.2339325E1,0E0,0E0,0E0],"parents":[2147483647,0,0,1,1,2,2,3,3,4,4,9,9],"right_children":[2,4,6,8,10,-1,-1,-1,-1,12,-1,-1,-1],"split_conditions":[1.9830348E-1,1.780886E-1,2.3615608E-1,2.4000043E-1,2.2851105E-1,-1.5759704E-1,-3.5902858E-2,-1.6589892E-1,1.5735649E-1,1.6419491E-1,1.5796827E-1,-1.481718E-1,1.55844E-1],"split_indices":[2,4,4,3,4,0,0,0,0,3,0,0,0],"split_type":[0,0,0,0,0,0,0,0,0,0,0,0,0],"sum_hessian":[2.977416E3,1.5933992E3,1.3840168E3,2.7373026E2,1.319669E3,1.3794056E3,4.611292E0,9.3914185E1,1.7981609E2,8.273563E1,1.2369333E3,5.295898E0,7.743973E1],"tree_param":{"num_deleted":"0","num_feature":"6","num_nodes":"13","size_leaf_vector":"1"}},{"base_weights":[1.315103E-2,1.3016026E0,-1.4880747E0,3.964021E-1,1.4716865E0,-1.4917861E-1,-3.3066418E-2,-1.5614943E-1,1.4882648E-1,1.019108E0,1.4851081E0,-1.3569185E-1,1.4500335E-1,1.3023145E0,1.4955522E-1,-1.3122094E-1,1.4739873E-1],"categories":[],"categories_nodes":[],"categories_segments":[],"categories_sizes":[],"default_left":[0,0,0,0,0,0,0,0,0,0,0,0,0,0,0,0,0],"id":4,"left_children":[1,3,5,7,9,-1,-1,-1,-1,11,13,-1,-1,15,-1,-1,-1],"loss_changes":[5.5318267E3,2.3618408E2,4.998535E0,5.258614E2,6.1032715E0,0E0,0E0,0E0,0E0,4.3653816E1,1.694336E-1,0E0,0E0,3.611235E1,0E0,0E0,0E0],"parents":[2147483647,0,0,1,1,2,2,3,3,4,4,9,9,10,10,13,13],"right_children":[2,4,6,8,10,-1,-1,-1,-1,12,14,-1,-1,16,-1,-1,-1],"split_conditions":[1.9830348E-1,1.6518599E-1,2.3615608E-1,2.5208437E-1,1.8827581E-1,-1.4917861E-1,-3.3066418E-2,-1.5614943E-1,1.4882648E-1,1.4810011E-1,2.2851105E-1,-1.3569185E-1,1.4500335E-1,1.6419491E-1,1.4955522E-1,-1.3122094E-1,1.4739873E-1],"split_indices":[2,4,4,3,4,0,0,0,0,3,4,0,0,3,0,0,0],"split_type":[0,0,0,0,0,0,0,0,0,0,0,0,0,0,0,0,0],"sum_hessian":[2.8579324E3,1.5380636E3,1.3198687E3,2.4390414E2,1.2941594E3,1.3152758E3,4.5929193E0,8.713482E1,1.5676932E2,3.970449E1,1.254455E3,5.7299447E0,3.397455E1,7.511132E1,1.1793436E3,4.1827745E0,7.092854E1],"tree_param":{"num_deleted":"0","num_feature":"6","num_nodes":"17","size_leaf_vector":"1"}},{"base_weights":[-2.6126592E-3,1.2468327E0,-1.419761E0,-1.1634295E0,1.4042766E0,-1.423493E-1,-3.0460149E-2,-1.4478904E-1,1.3015626E-1,1.254006E0,1.4276737E-1,-4.838747E-1,1.3661684E0,-1.5352002E-1,5.459536E-2,1.3949235E-1,-1.946422E-2],"categories":[],"categories_nodes":[],"categories_segments":[],"categories_sizes":[],"default_left":[0,0,0,0,0,0,0,0,0,0,0,0,0,0,0,0,0],"id":5,"left_children":[1,3,5,7,9,-1,-1,-1,-1,11,-1,13,15,-1,-1,-1,-1],"loss_changes":[4.7721006E3,5.4517456E2,4.64917E0,6.383557E1,2.670166E0,0E0,0E0,0E0,0E0,3.7783173E1,0E0,1.4149015E1,8.415741E0,0E0,0E0,0E0,0E0],"parents":[2147483647,0,0,1,1,2,2,3,3,4,4,9,9,11,11,12,12],"right_children":[2,4,6,8,10,-1,-1,-1,-1,12,-1,14,16,-1,-1,-1,-1],"split_conditions":[1.9830348E-1,2.8462128E-3,2.3615608E-1,2.5791168E-1,1.9283552E-1,-1.423493E-1,-3.0460149E-2,-1.4478904E-1,1.3015626E-1,1.0622971E-1,1.4276737E-1,1.026168E-1,1.4906228E-1,-1.5352002E-1,5.459536E-2,1.3949235E-1,-1.946422E-2],"split_indices":[2,1,4,4,4,0,0,0,0,0,0,1,2,0,0,0,0],"split_type":[0,0,0,0,0,0,0,0,0,0,0,0,0,0,0,0,0],"sum_hessian":[2.6931038E3,1.4312634E3,1.2618405E3,8.732994E1,1.3439335E3,1.2572666E3,4.573893E0,7.8701004E1,8.628935E0,1.889907E2,1.1549427E3,1.1202948E1,1.7778777E2,5.348831E0,5.854116E0,1.7473888E2,3.0488834E0],"tree_param":{"num_deleted":"0","num_feature":"6","num_nodes":"17","size_leaf_vector":"1"}},{"base_weights":[-8.925664E-3,1.195231E0,-1.3632618E0,-1.1520504E0,1.348667E0,-1.367086E-1,-3.2905616E-2,-1.384889E-1,1.218759E-1,1.3542796E0,8.234471E-1,5.6546766E-2,1.3559638E-1,-4.735503E-3,1.2754513E-1],"categories":[],"categories_nodes":[],"categories_segments":[],"categories_sizes":[],"default_left":[0,0,0,0,0,0,0,0,0,0,0,0,0,0,0],"id":6,"left_children":[1,3,5,7,9,-1,-1,-1,-1,11,13,-1,-1,-1,-1],"loss_changes":[4.1070503E3,4.816853E2,4.0683594E0,4.7130775E1,2.3571777E0,0E0,0E0,0E0,0E0,6.838379E-1,6.470997E0,0E0,0E0,0E0,0E0],"parents":[2147483647,0,0,1,1,2,2,3,3,4,4,9,9,10,10],"right_children":[2,4,6,8,10,-1,-1,-1,-1,12,14,-1,-1,-1,-1],"split_conditions":[1.9830348E-1,2.8462128E-3,2.3615608E-1,2.5791168E-1,1.8811928E-1,-1.367086E-1,-3.2905616E-2,-1.384889E-1,1.218759E-1,5.1934298E-2,6.194373E-1,5.6546766E-2,1.3559638E-1,-4.735503E-3,1.2754513E-1],"split_indices":[2,1,4,4,2,0,0,0,0,4,1,0,0,0,0],"split_type":[0,0,0,0,0,0,0,0,0,0,0,0,0,0,0],"sum_hessian":[2.516367E3,1.3320599E3,1.184307E3,8.1291664E1,1.2507683E3,1.179527E3,4.7800126E0,7.4439E1,6.852661E0,1.2357935E3,1.4974818E1,3.4766123E0,1.2323169E3,5.3472157E0,9.627603E0],"tree_param":{"num_deleted":"0","num_feature":"6","num_nodes":"15","size_leaf_vector":"1"}},{"base_weights":[1.2533391E-3,1.1472837E0,-1.3114122E0,3.661066E-1,1.2634896E0,-1.3203807E-1,9.5705E-2,8.457142E-1,-1.1232675E0,1.2898027E0,9.6099955E-1,-8.339321E-1,9.514151E-1,-1.3241486E-1,9.524184E-2,4.8461318E-2,1.2918224E0,-8.691903E-1,1.3070266E-1,-3.265382E-2,-1.15338795E-1,1.0965842E0,5.9621617E-2,1.0480332E0,1.2997384E-1,-1.3398188E-1,7.222405E-2,5.1023167E-2,1.3042855E-1,-8.9350335E-2,1.0525512E-1,5.327527E-3,1.1790456E-1],"categories":[],"categories_nodes":[],"categories_segments":[],"categories_sizes":[],"default_left":[0,0,0,0,0,0,0,0,0,0,0,0,0,0,0,0,0,0,0,0,0,0,0,0,0,0,0,0,0,0,0,0,0],"id":7,"left_children":[1,3,5,7,9,-1,-1,11,13,15,17,19,21,-1,-1,-1,23,25,-1,-1,-1,27,29,31,-1,-1,-1,-1,-1,-1,-1,-1,-1],"loss_changes":[3.579051E3,1.1468286E2,2.386023E1,1.1950351E2,7.3323975E0,0E0,0E0,2.3209305E1,1.8316757E1,8.444824E-1,5.987023E1,7.6368093E-1,1.5256439E1,0E0,0E0,0E0,3.527832E-1,1.2481427E1,0E0,0E0,0E0,1.1623543E1,1.7846928E1,4.6795235E0,0E0,0E0,0E0,0E0,0E0,0E0,0E0,0E0,0E0],"parents":[2147483647,0,0,1,1,2,2,3,3,4,4,7,7,8,8,9,9,10,10,11,11,12,12,16,16,17,17,21,21,22,22,23,23],"right_children":[2,4,6,8,10,-1,-1,12,14,16,18,20,22,-1,-1,-1,24,26,-1,-1,-1,28,30,32,-1,-1,-1,-1,-1,-1,-1,-1,-1],"split_conditions":[1.9830348E-1,1.0622971E-1,5.383742E-1,1.02536745E-1,1.4906228E-1,-1.3203807E-1,9.5705E-2,2.7863353E-3,2.4000043E-1,2.4631277E-3,5E-1,2.5608767E-2,1E-1,-1.3241486E-1,9.524184E-2,4.8461318E-2,2.7863353E-3,1.6419491E-1,1.3070266E-1,-3.265382E-2,-1.15338795E-1,3.971328E-2,7.170819E-2,6.080324E-2,1.2997384E-1,-1.3398188E-1,7.222405E-2,5.1023167E-2,1.3042855E-1,-8.9350335E-2,1.0525512E-1,5.327527E-3,1.1790456E-1],"split_indices":[2,0,0,2,2,0,0,2,3,3,0,3,0,0,0,0,2,3,0,0,0,0,3,3,0,0,0,0,0,0,0,0,0],"split_type":[0,0,0,0,0,0,0,0,0,0,0,0,0,0,0,0,0,0,0,0,0,0,0,0,0,0,0,0,0,0,0,0,0],"sum_hessian":[2.3771382E3,1.2692308E3,1.1079072E3,1.6500696E2,1.1042239E3,1.1040045E3,3.9027247E0,1.2519199E2,3.981496E1,1.01254926E3,9.167462E1,6.9480476E0,1.1824395E2,3.667579E1,3.1391692E0,3.2602072E0,1.00928906E3,1.4290275E1,7.7384346E1,3.5866103E0,3.361437E0,1.0139651E2,1.6847435E1,3.6333954E1,9.729551E2,1.1199287E1,3.0909872E0,2.7552433E1,7.384408E1,8.595721E0,8.251714E0,4.4809175E0,3.1853035E1],"tree_param":{"num_deleted":"0","num_feature":"6","num_nodes":"33","size_leaf_vector":"1"}},{"base_weights":[-2.2440204E-2,1.1076711E0,-1.2652446E0,3.6190578E-1,1.2694187E0,-1.2808673E-1,1.2979995E-1,-1.37755E-1,1.2801257E-1,1.0867049E0,1.2839006E-1,-1.2373258E-1,1.2668014E-1],"categories":[],"categories_nodes":[],"categories_segments":[],"categories_sizes":[],"default_left":[0,0,0,0,0,0,0,0,0,0,0,0,0],"id":8,"left_children":[1,3,5,7,9,-1,-1,-1,-1,11,-1,-1,-1],"loss_changes":[3.0791826E3,1.3788013E2,4.3473633E1,3.3102478E2,8.630371E-1,0E0,0E0,0E0,0E0,3.3494812E1,0E0,0E0,0E0],"parents":[2147483647,0,0,1,1,2,2,3,3,4,4,9,9],"right_children":[2,4,6,8,10,-1,-1,-1,-1,12,-1,-1,-1],"split_conditions":[1.9357039E-1,1.780886E-1,2.9074913E-1,2.5208437E-1,2.3615608E-1,-1.2808673E-1,1.2979995E-1,-1.37755E-1,1.2801257E-1,1.0794568E-1,1.2839006E-1,-1.2373258E-1,1.2668014E-1],"split_indices":[2,4,4,3,4,0,0,0,0,3,0,0,0],"split_type":[0,0,0,0,0,0,0,0,0,0,0,0,0],"sum_hessian":[2.1903489E3,1.1472007E3,1.0431482E3,2.0515482E2,9.4204584E2,1.0373649E3,5.783334E0,7.066998E1,1.3448483E2,7.5273895E1,8.667719E2,4.951559E0,7.0322334E1],"tree_param":{"num_deleted":"0","num_feature":"6","num_nodes":"13","size_leaf_vector":"1"}},{"base_weights":[-7.2298304E-4,-1.2282755E-1,1.0127778E0,1.73808E-1,1.1707963E0,1.2516409E-1,-1.1056032E0,8.722863E-1,1.2256922E-1,-1.2610337E-1,1.0936739E-1,7.794517E-2,1.076522E0,1.17617324E-1,-1.2611578E-1,7.5060564E-1,1.2365204E-1,1.2138887E-1,-1.1360943E-1],"categories":[],"categories_nodes":[],"categories_segments":[],"categories_sizes":[],"default_left":[0,0,0,0,0,0,0,0,0,0,0,0,0,0,0,0,0,0,0],"id":9,"left_children":[1,-1,3,5,7,-1,9,11,-1,-1,-1,13,15,-1,-1,17,-1,-1,-1],"loss_changes":[2.5480251E3,0E0,1.4837927E2,2.4833675E2,1.4185547E1,0E0,2.955207E1,2.4190819E1,0E0,0E0,0E0,4.842775E1,5.1000824E0,0E0,0E0,3.815938E1,0E0,0E0,0E0],"parents":[2147483647,0,0,2,2,3,3,4,4,6,6,7,7,11,11,12,12,15,15],"right_children":[2,-1,4,6,8,-1,10,12,-1,-1,-1,14,16,-1,-1,18,-1,-1,-1],"split_conditions":[2.8462128E-3,-1.2282755E-1,1.0622971E-1,1E-1,6.391493E-2,1.2516409E-1,4.4830498E-1,2.005514E-1,1.2256922E-1,-1.2610337E-1,1.0936739E-1,2E-1,5E-1,1.17617324E-1,-1.2611578E-1,3E-1,1.2365204E-1,1.2138887E-1,-1.1360943E-1],"split_indices":[1,0,0,1,3,0,3,0,0,0,0,0,0,0,0,0,0,0,0],"split_type":[0,0,0,0,0,0,0,0,0,0,0,0,0,0,0,0,0,0,0],"sum_hessian":[2.0460281E3,9.2525073E2,1.1207773E3,1.780717E2,9.427056E2,9.67039E1,8.13678E1,1.4934047E2,7.933652E2,7.643777E1,4.930036E0,3.0926844E1,1.1841362E2,1.7099508E1,1.3827336E1,4.107015E1,7.7343475E1,3.3302307E1,7.767839E0],"tree_param":{"num_deleted":"0","num_feature":"6","num_nodes":"19","size_leaf_vector":"1"}},{"base_weights":[-4.8962474E-4,1.0543101E0,-1.2137333E0,-9.5645976E-1,1.1933228E0,-1.2181188E-1,-8.9501E-3,-1.2384683E-1,1.1502967E-1,1.0239689E0,1.2215731E-1,-1.5268187E-1,1.21436514E-1],"categories":[],"categories_nodes":[],"categories_segments":[],"categories_sizes":[],"default_left":[0,0,0,0,0,0,0,0,0,0,0,0,0],"id":10,"left_children":[1,3,5,7,9,-1,-1,-1,-1,11,-1,-1,-1],"loss_changes":[2.4340354E3,2.8554614E2,4.121704E0,4.0821487E1,3.0795898E0,0E0,0E0,0E0,0E0,7.117645E1,0E0,0E0,0E0],"parents":[2147483647,0,0,1,1,2,2,3,3,4,4,9,9],"right_children":[2,4,6,8,10,-1,-1,-1,-1,12,-1,-1,-1],"split_conditions":[1.9830348E-1,2.8462128E-3,2.3615608E-1,2.5791168E-1,1.9283552E-1,-1.2181188E-1,-8.9501E-3,-1.2384683E-1,1.1502967E-1,1.6419491E-1,1.2215731E-1,-1.5268187E-1,1.21436514E-1],"split_indices":[2,1,4,4,4,0,0,0,0,3,0,0,0],"split_type":[0,0,0,0,0,0,0,0,0,0,0,0,0],"sum_hessian":[1.8999803E3,1.01638184E3,8.835986E2,6.529611E1,9.510857E2,8.799933E2,3.6052616E0,5.799285E1,7.3032603E0,1.4180257E2,8.0928314E2,9.325263E0,1.3247731E2],"tree_param":{"num_deleted":"0","num_feature":"6","num_nodes":"13","size_leaf_vector":"1"}},{"base_weights":[7.5432966E-3,1.0273758E0,-1.1882384E0,-9.4318044E-1,1.1693239E0,-1.1932113E-1,-1.7725565E-2,-3.8334656E-1,-1.1926223E-1,1.17549814E-1,5.7232666E-1,-1.1039294E-1,1.7305942E-1,-4.1070137E-2,1.0548478E-1,-4.610971E-2,5.3594746E-2],"categories":[],"categories_nodes":[],"categories_segments":[],"categories_sizes":[],"default_left":[0,0,0,0,0,0,0,0,0,0,0,0,0,0,0,0,0],"id":11,"left_children":[1,3,5,7,9,-1,-1,11,-1,-1,13,-1,15,-1,-1,-1,-1],"loss_changes":[2.1545652E3,2.6785846E2,3.739746E0,8.403755E0,2.4331055E0,0E0,0E0,8.905518E0,0E0,0E0,5.822016E0,0E0,3.227861E0,0E0,0E0,0E0,0E0],"parents":[2147483647,0,0,1,1,2,2,3,3,4,4,7,7,10,10,12,12],"right_children":[2,4,6,8,10,-1,-1,12,-1,-1,14,-1,16,-1,-1,-1,-1],"split_conditions":[1.9830348E-1,2.8462128E-3,5E-1,7.533729E-2,1.8811928E-1,-1.1932113E-1,-1.7725565E-2,4.230743E-2,-1.1926223E-1,1.17549814E-1,6.160239E-1,-1.1039294E-1,1.873603E-2,-4.1070137E-2,1.0548478E-1,-4.610971E-2,5.3594746E-2],"split_indices":[2,1,0,2,2,0,0,3,0,0,1,0,2,0,0,0,0],"split_type":[0,0,0,0,0,0,0,0,0,0,0,0,0,0,0,0,0],"sum_hessian":[1.7647776E3,9.5258325E2,8.121943E2,6.3581474E1,8.8900183E2,8.079409E2,4.2533474E0,2.0503109E1,4.3078365E1,8.787768E2,1.02249975E1,8.583104E0,1.1920005E1,3.347276E0,6.8777213E0,4.1396527E0,7.780352E0],"tree_param":{"num_deleted":"0","num_feature":"6","num_nodes":"17","size_leaf_vector":"1"}},{"base_weights":[4.3090084E-4,1.0123745E0,-1.1547643E0,-8.498227E-1,1.144402E0,-1.1713882E-1,1.15681805E-1,-2.6530072E-1,-1.1650898E-1,7.376536E-1,1.15119696E-1,-9.9884786E-2,-6.003956E-3,1.1061533E-1,-5.796526E-2,-3.1930113E-1,4.4558603E-2,-1.1750642E-2,-4.8511736E-2],"categories":[],"categories_nodes":[],"categories_segments":[],"categories_sizes":[],"default_left":[0,0,0,0,0,0,0,0,0,0,0,0,0,0,0,0,0,0,0],"id":12,"left_children":[1,3,5,7,9,-1,-1,11,-1,13,-1,-1,15,-1,-1,17,-1,-1,-1],"loss_changes":[1.9042389E3,2.1450043E2,3.0584412E1,1.0238728E1,1.2044678E0,0E0,0E0,4.0272536E0,0E0,8.633915E0,0E0,0E0,2.5580106E0,0E0,0E0,2.4567604E-1,0E0,0E0,0E0],"parents":[2147483647,0,0,1,1,2,2,3,3,4,4,7,7,9,9,12,12,15,15],"right_children":[2,4,6,8,10,-1,-1,12,-1,14,-1,-1,16,-1,-1,18,-1,-1,-1],"split_conditions":[1.9357039E-1,2.8462128E-3,2.1134351E-1,7.533729E-2,3.971328E-2,-1.1713882E-1,1.15681805E-1,2.7863353E-3,-1.1650898E-1,8.892225E-2,1.15119696E-1,-9.9884786E-2,1.0622971E-1,1.1061533E-1,-5.796526E-2,4.622044E-2,4.4558603E-2,-1.1750642E-2,-4.8511736E-2],"split_indices":[2,1,1,2,0,0,0,2,0,1,0,0,0,0,0,2,0,0,0],"split_type":[0,0,0,0,0,0,0,0,0,0,0,0,0,0,0,0,0,0,0],"sum_hessian":[1.6269695E3,8.673695E2,7.596E2,5.701407E1,8.1035547E2,7.54709E2,4.8909917E0,2.0732893E1,3.6281174E1,1.5356908E1,7.9499854E2,4.5691185E0,1.6163774E1,1.218462E1,3.1722884E0,9.846796E0,6.316979E0,5.48428E0,4.3625164E0],"tree_param":{"num_deleted":"0","num_feature":"6","num_nodes":"19","size_leaf_vector":"1"}},{"base_weights":[-1.7989684E-2,9.716815E-1,-1.1464918E0,3.084219E-1,1.0867187E0,-1.1518867E-1,-1.9951563E-2,6.895625E-1,-9.700448E-1,8.386902E-1,1.1278502E0,8.816948E-1,-1.3620913E-1,-1.15190946E-1,3.4552053E-2,1.1612512E-1,1.0292368E0,1.13283455E-1,4.1076437E-2,3.8574997E-1,1.1342192E-1,-7.3258513E-1,7.479453E-2,1.0632216E-1,-1.2105747E-1,7.5049704E-1,1.12819254E-1,-7.534595E-2,7.9476915E-2,-1.5091971E-2,-1.0729233E-1,1.09610155E-1,-1.0206139E-1],"categories":[],"categories_nodes":[],"categories_segments":[],"categories_sizes":[],"default_left":[0,0,0,0,0,0,0,0,0,0,0,0,0,0,0,0,0,0,0,0,0,0,0,0,0,0,0,0,0,0,0,0,0],"id":13,"left_children":[1,3,5,7,9,-1,-1,11,13,15,17,19,21,-1,-1,23,25,-1,-1,27,-1,29,-1,-1,-1,31,-1,-1,-1,-1,-1,-1,-1],"loss_changes":[1.6578538E3,5.986328E1,3.1784668E0,5.8339424E1,5.727173E0,0E0,0E0,1.4769142E1,7.0698986E0,1.3538712E1,1.4332275E0,8.772591E0,1.0094044E1,0E0,0E0,2.9055632E1,1.1423111E0,0E0,0E0,1.3123364E1,0E0,1.9697046E0,0E0,0E0,0E0,1.5773387E1,0E0,0E0,0E0,0E0,0E0,0E0,0E0],"parents":[2147483647,0,0,1,1,2,2,3,3,4,4,7,7,8,8,9,9,10,10,11,11,12,12,15,15,16,16,19,19,21,21,25,25],"right_children":[2,4,6,8,10,-1,-1,12,14,16,18,20,22,-1,-1,24,26,-1,-1,28,-1,30,-1,-1,-1,32,-1,-1,-1,-1,-1,-1,-1],"split_conditions":[1.9830348E-1,1.0622971E-1,5E-1,1.06806085E-1,6.3052006E-2,-1.1518867E-1,-1.9951563E-2,1E-1,1.6419491E-1,2.005514E-1,1.8811928E-1,3.971328E-2,7.784448E-2,-1.15190946E-1,3.4552053E-2,2E-1,5E-1,1.13283455E-1,4.1076437E-2,4.534594E-2,1.1342192E-1,3.2922164E-2,7.479453E-2,1.0632216E-1,-1.2105747E-1,3E-1,1.12819254E-1,-7.534595E-2,7.9476915E-2,-1.5091971E-2,-1.0729233E-1,1.09610155E-1,-1.0206139E-1],"split_indices":[2,0,0,2,3,0,0,0,3,0,2,0,3,0,0,0,0,0,0,3,0,2,0,0,0,0,0,0,0,0,0,0,0],"split_type":[0,0,0,0,0,0,0,0,0,0,0,0,0,0,0,0,0,0,0,0,0,0,0,0,0,0,0,0,0,0,0,0,0],"sum_hessian":[1.4823936E3,7.898037E2,6.925899E2,1.1741055E2,6.723931E2,6.8834644E2,4.2434506E0,9.086149E1,2.6549067E1,9.9033E1,5.7336017E2,7.3754425E1,1.7107065E1,2.3500721E1,3.0483449E0,2.1111406E1,7.792159E1,5.686881E2,4.672039E0,2.587022E1,4.78842E1,1.0386045E1,6.7210193E0,1.2477801E1,8.633605E0,2.292917E1,5.499242E1,6.5474668E0,1.9322752E1,4.4750643E0,5.910981E0,1.955157E1,3.3775985E0],"tree_param":{"num_deleted":"0","num_feature":"6","num_nodes":"33","size_leaf_vector":"1"}},{"base_weights":[-6.860877E-3,9.6847284E-1,-1.1293389E0,2.7605867E-1,1.122498E0,-1.1350069E-1,-8.7497905E-3,-1.2244443E-1,1.12721145E-1,9.237121E-1,1.1357963E-1,-9.952235E-2,1.10925615E-1],"categories":[],"categories_nodes":[],"categories_segments":[],"categories_sizes":[],"default_left":[0,0,0,0,0,0,0,0,0,0,0,0,0],"id":14,"left_children":[1,3,5,7,9,-1,-1,-1,-1,11,-1,-1,-1],"loss_changes":[1.5155472E3,7.85412E1,3.5794678E0,1.7534624E2,3.453369E-1,0E0,0E0,0E0,0E0,1.670657E1,0E0,0E0,0E0],"parents":[2147483647,0,0,1,1,2,2,3,3,4,4,9,9],"right_children":[2,4,6,8,10,-1,-1,-1,-1,12,-1,-1,-1],"split_conditions":[1.9830348E-1,1.780886E-1,2.3615608E-1,2.5208437E-1,2.2851105E-1,-1.1350069E-1,-8.7497905E-3,-1.2244443E-1,1.12721145E-1,1.6419491E-1,1.1357963E-1,-9.952235E-2,1.10925615E-1],"split_indices":[2,4,4,3,4,0,0,0,0,3,0,0,0],"split_type":[0,0,0,0,0,0,0,0,0,0,0,0,0],"sum_hessian":[1.3823124E3,7.396609E2,6.4265155E2,1.352211E2,6.0443976E2,6.389897E2,3.6618395E0,4.8740353E1,8.648074E1,4.2789745E1,5.6165E2,3.3403523E0,3.9449394E1],"tree_param":{"num_deleted":"0","num_feature":"6","num_nodes":"13","size_leaf_vector":"1"}},{"base_weights":[9.071652E-3,9.4255096E-1,-1.12048626E-1,2.9822075E-1,1.0536245E0,6.817455E-1,-9.220592E-1,8.375232E-1,1.0999527E-1,8.397147E-1,-0E0,-1.0945294E-1,2.1489438E-2,2.2625485E-1,1.0054721E0,4.116857E-1,1.09749995E-1,-6.011302E-1,7.3475905E-2,1.06115334E-1,-1.1589309E-1,8.2013065E-1,1.1016456E-1,-4.261442E-2,7.0994735E-2,-5.1490343E-3,-9.643922E-2,1.0783308E-1,-7.06146E-3],"categories":[],"categories_nodes":[],"categories_segments":[],"categories_sizes":[],"default_left":[0,0,0,0,0,0,0,0,0,0,0,0,0,0,0,0,0,0,0,0,0,0,0,0,0,0,0,0,0],"id":15,"left_children":[1,3,-1,5,7,9,11,13,-1,15,17,-1,-1,19,21,23,-1,25,-1,-1,-1,27,-1,-1,-1,-1,-1,-1,-1],"loss_changes":[1.3403206E3,4.9364197E1,0E0,4.9216927E1,4.8235474E0,8.521999E0,5.265009E0,1.0868919E1,0E0,6.5251236E0,7.548662E0,0E0,0E0,3.0102053E1,4.2502594E-1,6.8350806E0,0E0,1.7129989E0,0E0,0E0,0E0,7.861782E0,0E0,0E0,0E0,0E0,0E0,0E0,0E0],"parents":[2147483647,0,0,1,1,3,3,4,4,5,5,6,6,7,7,9,9,10,10,13,13,14,14,15,15,17,17,21,21],"right_children":[2,4,-1,6,8,10,12,14,-1,16,18,-1,-1,20,22,24,-1,26,-1,-1,-1,28,-1,-1,-1,-1,-1,-1,-1],"split_conditions":[2.0533675E-1,1.0622971E-1,-1.12048626E-1,1.06806085E-1,7.4808486E-2,1E-1,1.4810011E-1,2.005514E-1,1.0999527E-1,3.971328E-2,7.784448E-2,-1.0945294E-1,2.1489438E-2,2E-1,5.383742E-1,3.5156265E-2,1.09749995E-1,3.2922164E-2,7.3475905E-2,1.06115334E-1,-1.1589309E-1,3E-1,1.1016456E-1,-4.261442E-2,7.0994735E-2,-5.1490343E-3,-9.643922E-2,1.0783308E-1,-7.06146E-3],"split_indices":[2,0,0,2,3,0,3,0,0,0,3,0,0,0,0,3,0,2,0,0,0,0,0,0,0,0,0,0,0],"split_type":[0,0,0,0,0,0,0,0,0,0,0,0,0,0,0,0,0,0,0,0,0,0,0,0,0,0,0,0,0],"sum_hessian":[1.2691613E3,6.9503265E2,5.7412866E2,1.0287085E2,5.921618E2,7.866904E1,2.4201815E1,1.0828687E2,4.838749E2,6.359934E1,1.50696945E1,2.1122852E1,3.0789633E0,2.3973877E1,8.4312996E1,2.502783E1,3.857151E1,8.336941E0,6.7327533E0,1.5149113E1,8.824764E0,3.2413845E1,5.189915E1,6.3700495E0,1.865778E1,3.8813E0,4.455641E0,2.505332E1,7.360527E0],"tree_param":{"num_deleted":"0","num_feature":"6","num_nodes":"29","size_leaf_vector":"1"}},{"base_weights":[-1.90734E-2,9.2372686E-1,-1.1074163E-1,1.7594223E-1,1.0960481E0,-1.20342195E-1,9.9549043E-1,8.5375094E-1,1.1124889E-1,-0E0,1.0640378E-1,-9.8214835E-2,1.0755328E-1],"categories":[],"categories_nodes":[],"categories_segments":[],"categories_sizes":[],"default_left":[0,0,0,0,0,0,0,0,0,0,0,0,0],"id":16,"left_children":[1,3,-1,5,7,-1,9,11,-1,-1,-1,-1,-1],"loss_changes":[1.1779065E3,7.893591E1,0E0,1.3286476E2,8.436279E-1,0E0,4.9254837E0,1.589883E1,0E0,0E0,0E0,0E0,0E0],"parents":[2147483647,0,0,1,1,3,3,4,4,6,6,7,7],"right_children":[2,4,-1,6,8,-1,10,12,-1,-1,-1,-1,-1],"split_conditions":[2.0533675E-1,1.780886E-1,-1.1074163E-1,1E0,2.2851105E-1,-1.20342195E-1,1.0622971E-1,1E0,1.1124889E-1,-0E0,1.0640378E-1,-9.8214835E-2,1.0755328E-1],"split_indices":[2,4,0,5,4,0,0,5,0,0,0,0,0],"split_type":[0,0,0,0,0,0,0,0,0,0,0,0,0],"sum_hessian":[1.1459417E3,6.1405914E2,5.318825E2,1.15490715E2,4.9856845E2,4.282405E1,7.2666664E1,3.5429966E1,4.631385E2,4.835319E0,6.7831345E1,3.4006035E0,3.202936E1],"tree_param":{"num_deleted":"0","num_feature":"6","num_nodes":"13","size_leaf_vector":"1"}},{"base_weights":[-2.507793E-3,-8.0316275E-1,1.0498838E0,-1.1065423E-1,1.08630195E-1,5.70763E-1,1.0991849E-1,-1.0189479E-1,1.06710576E-1],"categories":[],"categories_nodes":[],"categories_segments":[],"categories_sizes":[],"default_left":[0,0,0,0,0,0,0,0,0],"id":17,"left_children":[1,3,5,-1,-1,7,-1,-1,-1],"loss_changes":[8.929693E2,3.46252E2,1.0020874E1,0E0,0E0,3.658898E1,0E0,0E0,0E0],"parents":[2147483647,0,0,1,1,2,2,5,5],"right_children":[2,4,6,-1,-1,8,-1,-1,-1],"split_conditions":[2.0568568E-1,4.4830498E-1,2.5791168E-1,-1.1065423E-1,1.08630195E-1,2.6633784E-1,1.0991849E-1,-1.0189479E-1,1.06710576E-1],"split_indices":[4,3,4,0,0,3,0,0,0],"split_type":[0,0,0,0,0,0,0,0,0],"sum_hessian":[1.0578037E3,6.009417E2,4.56862E2,5.182042E2,8.273751E1,4.3987297E1,4.128747E2,1.0167605E1,3.381969E1],"tree_param":{"num_deleted":"0","num_feature":"6","num_nodes":"9","size_leaf_vector":"1"}},{"base_weights":[-8.113109E-3,8.984228E-1,-1.0853275E-1,1.7608875E-1,1.0753574E0,-1.1463245E-1,9.7381103E-1,8.56187E-1,1.0892069E-1,1.7442483E-2,1.03282504E-1,1.7435359E-2,9.548828E-1,1.0111244E-1,4.0307526E-2],"categories":[],"categories_nodes":[],"categories_segments":[],"categories_sizes":[],"default_left":[0,0,0,0,0,0,0,0,0,0,0,0,0,0,0],"id":18,"left_children":[1,3,-1,5,7,-1,9,11,-1,-1,-1,-1,13,-1,-1],"loss_changes":[9.543824E2,6.750519E1,0E0,1.12618385E2,1.6577148E-1,0E0,2.8374748E0,1.7675838E0,0E0,0E0,0E0,0E0,2.647705E-1,0E0,0E0],"parents":[2147483647,0,0,1,1,3,3,4,4,6,6,7,7,12,12],"right_children":[2,4,-1,6,8,-1,10,12,-1,-1,-1,-1,14,-1,-1],"split_conditions":[2.0533675E-1,1.8629228E-1,-1.0853275E-1,1E0,2.3615608E-1,-1.1463245E-1,1.0622971E-1,1.1784601E-1,1.0892069E-1,1.7442483E-2,1.03282504E-1,1.7435359E-2,1.2497459E-1,1.0111244E-1,4.0307526E-2],"split_indices":[2,4,0,5,4,0,0,0,0,0,0,0,2,0,0],"split_type":[0,0,0,0,0,0,0,0,0,0,0,0,0,0,0],"sum_hessian":[9.75299E2,5.2964575E2,4.4565323E2,1.047137E2,4.2493207E2,3.918799E1,6.552571E1,2.9418627E1,3.9551343E2,4.893253E0,6.0632458E1,4.1978507E0,2.5220776E1,2.1968124E1,3.252652E0],"tree_param":{"num_deleted":"0","num_feature":"6","num_nodes":"15","size_leaf_vector":"1"}},{"base_weights":[-2.6189606E-4,8.8696665E-1,-1.0760279E-1,-8.731864E-1,1.0362262E0,-1.0871432E-1,8.828705E-2,7.923326E-1,1.0798299E-1,-1.2928648E-1,1.065766E-1],"categories":[],"categories_nodes":[],"categories_segments":[],"categories_sizes":[],"default_left":[0,0,0,0,0,0,0,0,0,0,0],"id":19,"left_children":[1,3,-1,5,7,-1,-1,9,-1,-1,-1],"loss_changes":[8.481711E2,1.2884937E2,0E0,1.5465923E1,3.736206E0,0E0,0E0,4.255534E1,0E0,0E0,0E0],"parents":[2147483647,0,0,1,1,3,3,4,4,7,7],"right_children":[2,4,-1,6,8,-1,-1,10,-1,-1,-1],"split_conditions":[2.0533675E-1,2.8462128E-3,-1.0760279E-1,2.5791168E-1,1.9283552E-1,-1.0871432E-1,8.828705E-2,2.5208437E-1,1.0798299E-1,-1.2928648E-1,1.065766E-1],"split_indices":[2,1,0,4,4,0,0,3,0,0,0],"split_type":[0,0,0,0,0,0,0,0,0,0,0],"sum_hessian":[8.86629E2,4.8593826E2,4.0069077E2,3.7554466E1,4.483838E2,3.3866108E1,3.6883583E0,7.126036E1,3.7712344E2,7.7865224E0,6.3473835E1],"tree_param":{"num_deleted":"0","num_feature":"6","num_nodes":"11","size_leaf_vector":"1"}},{"base_weights":[1.0871914E-2,-1.0461738E0,8.551284E-1,-1.0707511E-1,8.880754E-2,1.106899E-1,1.0636952E-1,-1.08931E-1,9.6941864E-1,3.4387459E-3,1.0256859E-1],"categories":[],"categories_nodes":[],"categories_segments":[],"categories_sizes":[],"default_left":[0,0,0,0,0,0,0,0,0,0,0],"id":20,"left_children":[1,3,5,-1,-1,7,-1,-1,9,-1,-1],"loss_changes":[7.288436E2,1.8207184E1,7.0272675E1,0E0,0E0,1.04714264E2,0E0,0E0,2.9742966E0,0E0,0E0],"parents":[2147483647,0,0,1,1,2,2,5,5,8,8],"right_children":[2,4,6,-1,-1,8,-1,-1,10,-1,-1],"split_conditions":[2.8462128E-3,2.9074913E-1,1.9283552E-1,-1.0707511E-1,8.880754E-2,1E0,1.0636952E-1,-1.08931E-1,1.0622971E-1,3.4387459E-3,1.0256859E-1],"split_indices":[1,4,4,0,0,5,0,0,0,0,0],"split_type":[0,0,0,0,0,0,0,0,0,0,0],"sum_hessian":[8.147257E2,3.6161298E2,4.5311273E2,3.5756775E2,4.0452514E0,9.96044E1,3.5350833E2,4.1386017E1,5.821838E1,3.4968698E0,5.472151E1],"tree_param":{"num_deleted":"0","num_feature":"6","num_nodes":"11","size_leaf_vector":"1"}},{"base_weights":[-8.473231E-3,8.686513E-1,-1.06031515E-1,-8.084767E-1,1.0156407E0,-1.0582198E-1,8.6546145E-2,7.452828E-1,1.0631859E-1,-1.1903186E-1,1.0451702E-1],"categories":[],"categories_nodes":[],"categories_segments":[],"categories_sizes":[],"default_left":[0,0,0,0,0,0,0,0,0,0,0],"id":21,"left_children":[1,3,-1,5,7,-1,-1,9,-1,-1,-1],"loss_changes":[6.8140753E2,1.0011029E2,0E0,1.4710138E1,3.7921753E0,0E0,0E0,3.5537567E1,0E0,0E0,0E0],"parents":[2147483647,0,0,1,1,3,3,4,4,7,7],"right_children":[2,4,-1,6,8,-1,-1,10,-1,-1,-1],"split_conditions":[2.0533675E-1,2.8462128E-3,-1.06031515E-1,2.5791168E-1,1.9283552E-1,-1.0582198E-1,8.6546145E-2,2.5208437E-1,1.0631859E-1,-1.1903186E-1,1.0451702E-1],"split_indices":[2,1,0,4,4,0,0,3,0,0,0],"split_type":[0,0,0,0,0,0,0,0,0,0,0],"sum_hessian":[7.36557E2,4.0167868E2,3.348783E2,3.1950285E1,3.697284E2,2.8174376E1,3.7759092E0,5.8104603E1,3.116238E2,7.351593E0,5.075301E1],"tree_param":{"num_deleted":"0","num_feature":"6","num_nodes":"11","size_leaf_vector":"1"}},{"base_weights":[-4.563033E-3,8.614295E-1,-1.0535747E-1,-8.867937E-1,1.0143383E0,-1.0421516E-1,3.121723E-2,7.7533716E-1,1.0563675E-1,-1.13593794E-1,1.037124E-1],"categories":[],"categories_nodes":[],"categories_segments":[],"categories_sizes":[],"default_left":[0,0,0,0,0,0,0,0,0,0,0],"id":22,"left_children":[1,3,-1,5,7,-1,-1,9,-1,-1,-1],"loss_changes":[6.114736E2,9.9461E1,0E0,6.011009E0,2.4083252E0,0E0,0E0,2.8633282E1,0E0,0E0,0E0],"parents":[2147483647,0,0,1,1,3,3,4,4,7,7],"right_children":[2,4,-1,6,8,-1,-1,10,-1,-1,-1],"split_conditions":[2.0533675E-1,2.8462128E-3,-1.0535747E-1,2.2086102E-1,1.9283552E-1,-1.0421516E-1,3.121723E-2,2.5208437E-1,1.0563675E-1,-1.13593794E-1,1.037124E-1],"split_indices":[2,1,0,4,4,0,0,3,0,0,0],"split_type":[0,0,0,0,0,0,0,0,0,0,0],"sum_hessian":[6.710854E2,3.6765662E2,3.0342877E2,2.9132124E1,3.385245E2,2.5979929E1,3.1521943E0,5.3892044E1,2.8463245E2,6.0440426E0,4.7848E1],"tree_param":{"num_deleted":"0","num_feature":"6","num_nodes":"11","size_leaf_vector":"1"}},{"base_weights":[8.823545E-4,8.66331E-1,-1.0398153E0,2.6080322E-1,9.722767E-1,-3.0683449E-2,-1.0474437E-1,5.6869733E-1,-7.6362896E-1,7.510116E-1,1.020559E-1,2.3597008E-1,8.777838E-2,-9.498378E-2,-1.175623E-2,1.0311999E-1,-9.495343E-2,4.67156E-1,-4.7818467E-2,-1.7675865E-2,9.349642E-2],"categories":[],"categories_nodes":[],"categories_segments":[],"categories_sizes":[],"default_left":[0,0,0,0,0,0,0,0,0,0,0,0,0,0,0,0,0,0,0,0,0],"id":23,"left_children":[1,3,5,7,9,-1,-1,11,13,15,-1,17,-1,-1,-1,-1,-1,19,-1,-1,-1],"loss_changes":[5.580574E2,2.1329102E1,1.1159058E0,1.678187E1,2.1273193E0,0E0,0E0,3.851406E0,1.2665462E0,2.750175E1,0E0,3.6977243E0,0E0,0E0,0E0,0E0,0E0,5.215548E0,0E0,0E0,0E0],"parents":[2147483647,0,0,1,1,2,2,3,3,4,4,7,7,8,8,9,9,11,11,17,17],"right_children":[2,4,6,8,10,-1,-1,12,14,16,-1,18,-1,-1,-1,-1,-1,20,-1,-1,-1],"split_conditions":[1.9830348E-1,1.0622971E-1,2.1218506E-1,1.06806085E-1,2.005514E-1,-3.0683449E-2,-1.0474437E-1,7.7235594E-2,1.00324646E-1,2E-1,1.020559E-1,9.9028826E-2,8.777838E-2,-9.498378E-2,-1.175623E-2,1.0311999E-1,-9.495343E-2,3.971328E-2,-4.7818467E-2,-1.7675865E-2,9.349642E-2],"split_indices":[2,0,2,2,0,0,0,3,3,0,0,0,0,0,0,0,0,0,0,0,0],"split_type":[0,0,0,0,0,0,0,0,0,0,0,0,0,0,0,0,0,0,0,0,0],"sum_hessian":[6.1762134E2,3.3734634E2,2.8027502E2,5.0890377E1,2.8645596E2,3.4464715E0,2.7682855E2,3.9546978E1,1.1343403E1,5.464728E1,2.3180869E2,2.0050196E1,1.949678E1,8.320351E0,3.023052E0,4.730547E1,7.341814E0,1.5513922E1,4.5362735E0,6.700042E0,8.81388E0],"tree_param":{"num_deleted":"0","num_feature":"6","num_nodes":"21","size_leaf_vector":"1"}},{"base_weights":[4.0612197E-3,-1.0276556E-1,8.2959145E-1,1.6887748E-1,9.651621E-1,1.0167712E-1,-7.7857774E-1,6.5807587E-1,1.01805866E-1,-1.0252961E-1,8.034041E-2,-1.6171582E-1,8.6520654E-1,7.918684E-2,-9.136264E-2,5.944314E-1,9.9340454E-2,9.362333E-2,-3.7214387E-2],"categories":[],"categories_nodes":[],"categories_segments":[],"categories_sizes":[],"default_left":[0,0,0,0,0,0,0,0,0,0,0,0,0,0,0,0,0,0,0],"id":24,"left_children":[1,-1,3,5,7,-1,9,11,-1,-1,-1,13,15,-1,-1,17,-1,-1,-1],"loss_changes":[4.817153E2,0E0,2.7872116E1,4.4870766E1,3.3924866E0,0E0,1.1153879E1,7.2352486E0,0E0,0E0,0E0,7.2530665E0,4.0599632E-1,0E0,0E0,4.843282E0,0E0,0E0,0E0],"parents":[2147483647,0,0,2,2,3,3,4,4,6,6,7,7,11,11,12,12,15,15],"right_children":[2,-1,4,6,8,-1,10,12,-1,-1,-1,14,16,-1,-1,18,-1,-1,-1],"split_conditions":[2.8462128E-3,-1.0276556E-1,1.0622971E-1,1E-1,6.6450976E-2,1.0167712E-1,2.8725427E-1,2.005514E-1,1.01805866E-1,-1.0252961E-1,8.034041E-2,1.8131377E-1,5E-1,7.918684E-2,-9.136264E-2,9.419017E-2,9.9340454E-2,9.362333E-2,-3.7214387E-2],"split_indices":[1,0,0,1,3,0,3,0,0,0,0,0,0,0,0,1,0,0,0],"split_type":[0,0,0,0,0,0,0,0,0,0,0,0,0,0,0,0,0,0,0],"sum_hessian":[5.63606E2,2.5035533E2,3.132507E2,5.3840096E1,2.594106E2,2.8429996E1,2.5410099E1,4.0371113E1,2.190395E2,2.2341005E1,3.069093E0,8.089717E0,3.2281395E1,3.4844937E0,4.605223E0,1.2434518E1,1.9846878E1,9.285731E0,3.1487863E0],"tree_param":{"num_deleted":"0","num_feature":"6","num_nodes":"19","size_leaf_vector":"1"}},{"base_weights":[1.08293565E-2,8.4298754E-1,-1.0371571E-1,-6.8037426E-1,9.879045E-1,-1.414371E-1,-9.9484764E-2,8.0408156E-1,1.0193789E-1,-5.425195E-2,1.3180104E-1,8.9049436E-2,4.2525008E-1,-6.0180635E-3,3.1599365E-2,-3.6542322E-2,8.7883644E-2],"categories":[],"categories_nodes":[],"categories_segments":[],"categories_sizes":[],"default_left":[0,0,0,0,0,0,0,0,0,0,0,0,0,0,0,0,0],"id":25,"left_children":[1,3,-1,5,7,9,-1,11,-1,-1,13,-1,15,-1,-1,-1,-1],"loss_changes":[4.5349756E2,6.470404E1,0E0,4.104E0,5.323181E-1,1.2916551E0,0E0,9.290829E-1,0E0,0E0,2.9409474E-1,0E0,4.064848E0,0E0,0E0,0E0,0E0],"parents":[2147483647,0,0,1,1,3,3,4,4,5,5,7,7,10,10,12,12],"right_children":[2,4,-1,6,8,10,-1,12,-1,-1,14,-1,16,-1,-1,-1,-1],"split_conditions":[2.0533675E-1,2.8462128E-3,-1.0371571E-1,7.533729E-2,6.3052006E-2,4.534594E-2,-9.9484764E-2,1.02536745E-1,1.0193789E-1,-5.425195E-2,3.2922164E-2,8.9049436E-2,6.603146E-1,-6.0180635E-3,3.1599365E-2,-3.6542322E-2,8.7883644E-2],"split_indices":[2,1,0,2,3,3,0,2,0,0,2,0,1,0,0,0,0],"split_type":[0,0,0,0,0,0,0,0,0,0,0,0,0,0,0,0,0],"sum_hessian":[5.180318E2,2.8891144E2,2.2912038E2,2.471572E1,2.6419574E2,9.758899E0,1.495682E1,4.296831E1,2.2122742E2,3.7033157E0,6.055583E0,3.3672825E1,9.295488E0,3.02893E0,3.0266528E0,3.3790936E0,5.916395E0],"tree_param":{"num_deleted":"0","num_feature":"6","num_nodes":"17","size_leaf_vector":"1"}},{"base_weights":[-3.456795E-3,8.2293284E-1,-1.0326183E-1,-7.288234E-1,9.7842395E-1,-2.9769662E-1,-9.824517E-2,9.906081E-1,5.2461123E-1,-6.211924E-2,4.658257E-3,5.766609E-1,1.0008227E-1,-0E0,8.52726E-2,1.4404147E-2,8.089038E-2],"categories":[],"categories_nodes":[],"categories_segments":[],"categories_sizes":[],"default_left":[0,0,0,0,0,0,0,0,0,0,0,0,0,0,0,0,0],"id":26,"left_children":[1,3,-1,5,7,9,-1,11,13,-1,-1,15,-1,-1,-1,-1,-1],"loss_changes":[4.008295E2,6.3793472E1,0E0,2.2383623E0,6.448822E-1,1.2655277E0,0E0,2.3953247E-1,1.5296922E0,0E0,0E0,6.065426E-1,0E0,0E0,0E0,0E0,0E0],"parents":[2147483647,0,0,1,1,3,3,4,4,5,5,7,7,8,8,11,11],"right_children":[2,4,-1,6,8,10,-1,12,14,-1,-1,16,-1,-1,-1,-1,-1],"split_conditions":[2.0533675E-1,2.8462128E-3,-1.0326183E-1,7.533729E-2,1.8373537E-1,5.681664E-2,-9.824517E-2,1.1428627E-2,1.122063E-1,-6.211924E-2,4.658257E-3,2.1813816E-1,1.0008227E-1,-0E0,8.52726E-2,1.4404147E-2,8.089038E-2],"split_indices":[2,1,0,2,2,3,0,3,3,0,0,0,0,0,0,0,0],"split_type":[0,0,0,0,0,0,0,0,0,0,0,0,0,0,0,0,0],"sum_hessian":[4.6926953E2,2.6033255E2,2.08937E2,2.3315928E1,2.3701662E2,9.58723E0,1.3728699E1,2.2945294E2,7.563679E0,4.677879E0,4.909351E0,7.145022E0,2.2230792E2,3.218693E0,4.344986E0,3.2121916E0,3.9328303E0],"tree_param":{"num_deleted":"0","num_feature":"6","num_nodes":"17","size_leaf_vector":"1"}},{"base_weights":[5.1831333E-3,8.2083076E-1,-1.0284262E-1,-8.1651103E-1,9.7260636E-1,-2.8564382E-2,-9.305234E-2,6.497111E-1,9.931936E-1,8.2968704E-2,1.1016538E-2,1.0004393E-1,4.599161E-2],"categories":[],"categories_nodes":[],"categories_segments":[],"categories_sizes":[],"default_left":[0,0,0,0,0,0,0,0,0,0,0,0,0],"id":27,"left_children":[1,3,-1,5,7,-1,-1,9,11,-1,-1,-1,-1],"loss_changes":[3.6826672E2,6.1499893E1,0E0,8.9604855E-1,6.795502E-1,0E0,0E0,1.4274573E0,1.991272E-1,0E0,0E0,0E0,0E0],"parents":[2147483647,0,0,1,1,3,3,4,4,7,7,8,8],"right_children":[2,4,-1,6,8,-1,-1,10,12,-1,-1,-1,-1],"split_conditions":[2.0533675E-1,2.8462128E-3,-1.0284262E-1,2.6117828E-2,2.1944443E-2,-2.8564382E-2,-9.305234E-2,9.475265E-2,1.8811928E-1,8.2968704E-2,1.1016538E-2,1.0004393E-1,4.599161E-2],"split_indices":[2,1,0,2,3,0,0,2,2,0,0,0,0],"split_type":[0,0,0,0,0,0,0,0,0,0,0,0,0],"sum_hessian":[4.3484427E2,2.4321762E2,1.9162666E2,2.0205364E1,2.2301227E2,4.3470407E0,1.5858324E1,1.5609252E1,2.0740302E2,1.1162642E1,4.4466095E0,2.0357349E2,3.8295236E0],"tree_param":{"num_deleted":"0","num_feature":"6","num_nodes":"13","size_leaf_vector":"1"}},{"base_weights":[7.6404577E-3,-7.589357E-1,9.793314E-1,-1.0392157E-1,9.960609E-2,4.6923617E-1,1.0266415E-1,-8.2794584E-2,9.449535E-2],"categories":[],"categories_nodes":[],"categories_segments":[],"categories_sizes":[],"default_left":[0,0,0,0,0,0,0,0,0],"id":28,"left_children":[1,3,5,-1,-1,7,-1,-1,-1],"loss_changes":[2.9472244E2,1.0980094E2,3.5805511E0,0E0,0E0,1.1182565E1,0E0,0E0,0E0],"parents":[2147483647,0,0,1,1,2,2,5,5],"right_children":[2,4,6,-1,-1,8,-1,-1,-1],"split_conditions":[2.0568568E-1,4.4830498E-1,2.5791168E-1,-1.0392157E-1,9.960609E-2,2.6633784E-1,1.0266415E-1,-8.2794584E-2,9.449535E-2],"split_indices":[4,3,4,0,0,3,0,0,0],"split_type":[0,0,0,0,0,0,0,0,0],"sum_hessian":[3.9363953E2,2.2010927E2,1.7353024E2,1.9019862E2,2.9910645E1,1.5834596E1,1.5769565E2,3.9937763E0,1.1840819E1],"tree_param":{"num_deleted":"0","num_feature":"6","num_nodes":"9","size_leaf_vector":"1"}},{"base_weights":[2.184696E-3,7.99181E-1,-1.0207172E-1,1.7756021E-1,9.268639E-1,5.022743E-1,-7.175597E-1,9.6492875E-1,5.6977385E-1,6.817807E-1,-2.7333597E-2,-8.8804975E-2,-2.26844E-2,3.9040584E-2,9.821492E-2,-6.709277E-2,9.505245E-2,2.4434029E-1,9.496318E-2,-0E0,5.143961E-2],"categories":[],"categories_nodes":[],"categories_segments":[],"categories_sizes":[],"default_left":[0,0,0,0,0,0,0,0,0,0,0,0,0,0,0,0,0,0,0,0,0],"id":29,"left_children":[1,3,-1,5,7,9,11,13,15,17,-1,-1,-1,-1,-1,-1,-1,19,-1,-1,-1],"loss_changes":[2.9173218E2,1.5694351E1,0E0,1.0702415E1,1.5605164E0,3.963263E0,5.087147E-1,9.515228E-1,9.51753E0,2.2476006E0,0E0,0E0,0E0,0E0,0E0,0E0,0E0,6.430369E-1,0E0,0E0,0E0],"parents":[2147483647,0,0,1,1,3,3,4,4,5,5,6,6,7,7,8,8,9,9,17,17],"right_children":[2,4,-1,6,8,10,12,14,16,18,-1,-1,-1,-1,-1,-1,-1,20,-1,-1,-1],"split_conditions":[2.0533675E-1,1.0622971E-1,-1.0207172E-1,9.8731205E-2,1.4906228E-1,1E-1,7.4808486E-2,2.7863353E-3,5E-1,3.971328E-2,-2.7333597E-2,-8.8804975E-2,-2.26844E-2,3.9040584E-2,9.821492E-2,-6.709277E-2,9.505245E-2,7.7235594E-2,9.496318E-2,-0E0,5.143961E-2],"split_indices":[2,0,0,2,2,0,3,2,0,0,0,0,0,0,0,0,0,3,0,0,0],"split_type":[0,0,0,0,0,0,0,0,0,0,0,0,0,0,0,0,0,0,0,0,0],"sum_hessian":[3.5587085E2,2.0020059E2,1.5567027E2,3.465542E1,1.6554517E2,2.5834335E1,8.821083E0,1.4780707E2,1.7738094E1,2.1181921E1,4.6524153E0,5.794429E0,3.026654E0,5.159205E0,1.4264787E2,3.9246387E0,1.3813456E1,8.912332E0,1.2269588E1,5.2456303E0,3.6667013E0],"tree_param":{"num_deleted":"0","num_feature":"6","num_nodes":"21","size_leaf_vector":"1"}},{"base_weights":[5.9120357E-3,7.7698225E-1,-1.0174135E-1,1.5698943E-1,9.1185856E-1,4.3738398E-1,-7.194759E-1,6.067355E-1,9.661517E-2,6.2221694E-1,-1.1055824E-1,-8.561557E-2,-3.1671822E-2,-1.1477693E-2,8.0979705E-1,1.9309817E-1,9.30719E-2,-5.1126536E-2,3.4393877E-2,4.9815485E-1,9.428399E-2,-2.4089951E-2,4.3507803E-2,8.15285E-2,-0E0],"categories":[],"categories_nodes":[],"categories_segments":[],"categories_sizes":[],"default_left":[0,0,0,0,0,0,0,0,0,0,0,0,0,0,0,0,0,0,0,0,0,0,0,0,0],"id":30,"left_children":[1,3,-1,5,7,9,11,13,-1,15,17,-1,-1,-1,19,21,-1,-1,-1,23,-1,-1,-1,-1,-1],"loss_changes":[2.6370462E2,1.5693474E1,0E0,8.987925E0,1.8450623E0,2.908484E0,1.0002184E-1,4.0552588E0,0E0,2.4715261E0,1.5871817E0,0E0,0E0,0E0,2.5554276E-1,1.187905E0,0E0,0E0,0E0,1.3920293E0,0E0,0E0,0E0,0E0,0E0],"parents":[2147483647,0,0,1,1,3,3,4,4,5,5,6,6,7,7,9,9,10,10,14,14,15,15,19,19],"right_children":[2,4,-1,6,8,10,12,14,-1,16,18,-1,-1,-1,20,22,-1,-1,-1,24,-1,-1,-1,-1,-1],"split_conditions":[2.0533675E-1,1.0622971E-1,-1.0174135E-1,1.06806085E-1,6.3052006E-2,1E-1,6.886779E-2,2.005514E-1,9.661517E-2,3.971328E-2,7.170819E-2,-8.561557E-2,-3.1671822E-2,-1.1477693E-2,5.383742E-1,4.534594E-2,9.30719E-2,-5.1126536E-2,3.4393877E-2,2.7696314E-1,9.428399E-2,-2.4089951E-2,4.3507803E-2,8.15285E-2,-0E0],"split_indices":[2,0,0,2,3,0,3,0,0,0,3,0,0,0,0,3,0,0,0,0,0,0,0,0,0],"split_type":[0,0,0,0,0,0,0,0,0,0,0,0,0,0,0,0,0,0,0,0,0,0,0,0,0],"sum_hessian":[3.3223138E2,1.8966116E2,1.4257022E2,3.4406837E1,1.5525433E2,2.653345E1,7.8733897E0,2.5570019E1,1.2968431E2,1.987584E1,6.657609E0,4.8525934E0,3.0207965E0,5.603199E0,1.996682E1,9.128454E0,1.0747385E1,3.5887282E0,3.068881E0,7.6180654E0,1.2348754E1,3.1213794E0,6.007075E0,4.311763E0,3.306302E0],"tree_param":{"num_deleted":"0","num_feature":"6","num_nodes":"25","size_leaf_vector":"1"}},{"base_weights":[6.837789E-3,7.668974E-1,-1.0042377E0,1.5743113E-1,8.9647686E-1,-1.0140269E-1,-4.162721E-2,4.2162043E-1,-7.9990745E-2,6.967337E-1,9.974026E-2,5.992857E-1,-1.3739638E-2,3.998829E-1,9.6955754E-2,1.4004901E-1,9.273436E-2,7.246111E-1,-9.7023845E-2,-2.2121102E-2,3.6072645E-2,8.333975E-2,2.7681484E-3],"categories":[],"categories_nodes":[],"categories_segments":[],"categories_sizes":[],"default_left":[0,0,0,0,0,0,0,0,0,0,0,0,0,0,0,0,0,0,0,0,0,0,0],"id":31,"left_children":[1,3,5,7,9,-1,-1,11,-1,13,-1,15,-1,17,-1,19,-1,21,-1,-1,-1,-1,-1],"loss_changes":[2.3544739E2,1.3571678E1,1.9137573E-1,8.39955E0,2.0374603E0,0E0,0E0,2.694572E0,0E0,3.6841068E0,0E0,2.765648E0,0E0,1.2586885E1,0E0,8.597692E-1,0E0,1.5791597E0,0E0,0E0,0E0,0E0,0E0],"parents":[2147483647,0,0,1,1,2,2,3,3,4,4,7,7,9,9,11,11,13,13,15,15,17,17],"right_children":[2,4,6,8,10,-1,-1,12,-1,14,-1,16,-1,18,-1,20,-1,22,-1,-1,-1,-1,-1],"split_conditions":[1.9830348E-1,1.0622971E-1,3.09027E-1,1.06806085E-1,1.3626127E-1,-1.0140269E-1,-4.162721E-2,1E-1,-7.9990745E-2,5E-1,9.974026E-2,3.971328E-2,-1.3739638E-2,1.02536745E-1,9.6955754E-2,4.534594E-2,9.273436E-2,2.7696314E-1,-9.7023845E-2,-2.2121102E-2,3.6072645E-2,8.333975E-2,2.7681484E-3],"split_indices":[2,0,0,2,3,0,0,0,0,0,0,0,0,2,0,3,0,0,0,0,0,0,0],"split_type":[0,0,0,0,0,0,0,0,0,0,0,0,0,0,0,0,0,0,0,0,0,0,0],"sum_hessian":[3.044103E2,1.7397092E2,1.3043939E2,3.1026598E1,1.4294432E2,1.2742318E2,3.0162163E0,2.4836664E1,6.1899343E0,5.096774E1,9.197658E1,1.8927898E1,5.9087667E0,2.5765448E1,2.5202291E1,8.608661E0,1.0319237E1,2.1268732E1,4.4967155E0,3.0917473E0,5.516914E0,1.8103575E1,3.1651561E0],"tree_param":{"num_deleted":"0","num_feature":"6","num_nodes":"23","size_leaf_vector":"1"}},{"base_weights":[1.3687365E-2,7.5359917E-1,-1.0110759E-1,-2.9457122E-2,9.944705E-1,-1.08088456E-1,9.703251E-2,6.029213E-1,1.01379745E-1,1.396697E-2,8.179536E-2],"categories":[],"categories_nodes":[],"categories_segments":[],"categories_sizes":[],"default_left":[0,0,0,0,0,0,0,0,0,0,0],"id":32,"left_children":[1,3,-1,5,7,-1,-1,9,-1,-1,-1],"loss_changes":[2.1226619E2,3.0801163E1,0E0,4.219541E1,1.6925812E-1,0E0,0E0,6.4340305E-1,0E0,0E0,0E0],"parents":[2147483647,0,0,1,1,3,3,4,4,7,7],"right_children":[2,4,-1,6,8,-1,-1,10,-1,-1,-1],"split_conditions":[2.0533675E-1,1.9283552E-1,-1.0110759E-1,2.5208437E-1,2.3615608E-1,-1.08088456E-1,9.703251E-2,7.035661E-1,1.01379745E-1,1.396697E-2,8.179536E-2],"split_indices":[2,4,0,3,4,0,0,3,0,0,0],"split_type":[0,0,0,0,0,0,0,0,0,0,0],"sum_hessian":[2.7797702E2,1.6163417E2,1.1634285E2,3.8132042E1,1.2350214E2,1.859519E1,1.9536852E1,7.5671577E0,1.15934975E2,3.0693414E0,4.4978166E0],"tree_param":{"num_deleted":"0","num_feature":"6","num_nodes":"11","size_leaf_vector":"1"}},{"base_weights":[-9.782753E-4,7.4899656E-1,-1.0082286E-1,6.931506E-3,9.9703826E-2,-1.0455246E-1,9.665003E-2],"categories":[],"categories_nodes":[],"categories_segments":[],"categories_sizes":[],"default_left":[0,0,0,0,0,0,0],"id":33,"left_children":[1,3,-1,5,-1,-1,-1],"loss_changes":[1.8999689E2,2.641494E1,0E0,3.857737E1,0E0,0E0,0E0],"parents":[2147483647,0,0,1,1,3,3],"right_children":[2,4,-1,6,-1,-1,-1],"split_conditions":[2.0533675E-1,2.115042E-1,-1.0082286E-1,2.5208437E-1,9.9703826E-2,-1.0455246E-1,9.665003E-2],"split_indices":[2,4,0,3,0,0,0],"split_type":[0,0,0,0,0,0,0],"sum_hessian":[2.4948018E2,1.4309334E2,1.06386826E2,3.6206284E1,1.0688706E2,1.7174967E1,1.9031315E1],"tree_param":{"num_deleted":"0","num_feature":"6","num_nodes":"7","size_leaf_vector":"1"}},{"base_weights":[3.415636E-3,-9.510852E-1,7.6134264E-1,-1.0093844E-1,5.2963104E-2,-1.667248E-2,1.0013074E-1,-1.0364481E-1,9.520115E-2],"categories":[],"categories_nodes":[],"categories_segments":[],"categories_sizes":[],"default_left":[0,0,0,0,0,0,0,0,0],"id":34,"left_children":[1,3,5,-1,-1,7,-1,-1,-1],"loss_changes":[1.6573703E2,9.331848E0,2.3968811E1,0E0,0E0,3.1621662E1,0E0,0E0,0E0],"parents":[2147483647,0,0,1,1,2,2,5,5],"right_children":[2,4,6,-1,-1,8,-1,-1,-1],"split_conditions":[2.8462128E-3,2.3615608E-1,1.9283552E-1,-1.0093844E-1,5.2963104E-2,4.4830498E-1,1.0013074E-1,-1.0364481E-1,9.520115E-2],"split_indices":[1,4,4,0,0,3,0,0,0],"split_type":[0,0,0,0,0,0,0,0,0],"sum_hessian":[2.2712042E2,1.0035316E2,1.26767265E2,9.692293E1,3.4302287E0,3.0003502E1,9.676376E1,1.4632505E1,1.5370996E1],"tree_param":{"num_deleted":"0","num_feature":"6","num_nodes":"9","size_leaf_vector":"1"}},{"base_weights":[-5.598494E-3,7.3736E-1,-1.00277916E-1,6.696236E-2,8.802909E-1,3.714413E-1,-8.484946E-2,6.743567E-1,9.829569E-2,5.023914E-1,-8.977283E-4,3.740511E-1,9.542702E-2,9.93542E-2,8.522472E-2,6.8339264E-1,-6.376586E-2,-4.9954923E-3,2.3965701E-2,1.6936107E-2,7.984774E-2],"categories":[],"categories_nodes":[],"categories_segments":[],"categories_sizes":[],"default_left":[0,0,0,0,0,0,0,0,0,0,0,0,0,0,0,0,0,0,0,0,0],"id":35,"left_children":[1,3,-1,5,7,9,-1,11,-1,13,-1,15,-1,17,-1,19,-1,-1,-1,-1,-1],"loss_changes":[1.5474504E2,1.1308304E1,0E0,6.462859E0,1.2516632E0,9.234712E-1,0E0,2.5567722E0,0E0,1.6813631E0,0E0,6.4810214E0,0E0,1.8592685E-1,0E0,6.7546844E-1,0E0,0E0,0E0,0E0,0E0],"parents":[2147483647,0,0,1,1,3,3,4,4,5,5,7,7,9,9,11,11,13,13,15,15],"right_children":[2,4,-1,6,8,10,-1,12,-1,14,-1,16,-1,18,-1,20,-1,-1,-1,-1,-1],"split_conditions":[2.0533675E-1,1.0622971E-1,-1.00277916E-1,1.06806085E-1,1.3626127E-1,1E-1,-8.484946E-2,5.383742E-1,9.829569E-2,3.971328E-2,-8.977283E-4,1.02536745E-1,9.542702E-2,5.49366E-2,8.522472E-2,1.873603E-2,-6.376586E-2,-4.9954923E-3,2.3965701E-2,1.6936107E-2,7.984774E-2],"split_indices":[2,0,0,2,3,0,0,0,0,0,0,2,0,3,0,2,0,0,0,0,0],"split_type":[0,0,0,0,0,0,0,0,0,0,0,0,0,0,0,0,0,0,0,0,0],"sum_hessian":[2.0683725E2,1.186192E2,8.821804E1,2.1226652E1,9.739255E1,1.6456686E1,4.7699666E0,3.5242756E1,6.214979E1,1.2199528E1,4.2571588E0,1.8301514E1,1.6941242E1,6.3983665E0,5.8011613E0,1.4340198E1,3.9613166E0,3.0663676E0,3.3319986E0,3.2343507E0,1.1105846E1],"tree_param":{"num_deleted":"0","num_feature":"6","num_nodes":"21","size_leaf_vector":"1"}},{"base_weights":[-6.2934854E-3,-7.3809546E-1,9.4928074E-1,-1.01863064E-1,9.464216E-2,3.7378123E-1,9.9928916E-2,-2.2365203E-2,8.0140345E-2],"categories":[],"categories_nodes":[],"categories_segments":[],"categories_sizes":[],"default_left":[0,0,0,0,0,0,0,0,0],"id":36,"left_children":[1,3,5,-1,-1,7,-1,-1,-1],"loss_changes":[1.3399704E2,5.2285603E1,1.8796387E0,0E0,0E0,2.3824866E0,0E0,0E0,0E0],"parents":[2147483647,0,0,1,1,2,2,5,5],"right_children":[2,4,6,-1,-1,8,-1,-1,-1],"split_conditions":[2.115042E-1,4.4830498E-1,2.5791168E-1,-1.01863064E-1,9.464216E-2,6.590469E-1,9.9928916E-2,-2.2365203E-2,8.0140345E-2],"split_indices":[4,3,4,0,0,3,0,0,0],"split_type":[0,0,0,0,0,0,0,0,0],"sum_hessian":[1.8964664E2,1.0758651E2,8.206013E1,9.261698E1,1.4969534E1,7.397965E0,7.466216E1,3.1876364E0,4.2103286E0],"tree_param":{"num_deleted":"0","num_feature":"6","num_nodes":"9","size_leaf_vector":"1"}},{"base_weights":[-6.929245E-3,7.242082E-1,-9.974403E-2,-5.2907623E-2,9.750382E-2,-9.8881714E-2,9.289057E-2],"categories":[],"categories_nodes":[],"categories_segments":[],"categories_sizes":[],"default_left":[0,0,0,0,0,0,0],"id":37,"left_children":[1,3,-1,5,-1,-1,-1],"loss_changes":[1.2515882E2,1.9510632E1,0E0,2.3984154E1,0E0,0E0,0E0],"parents":[2147483647,0,0,1,1,3,3],"right_children":[2,4,-1,6,-1,-1,-1],"split_conditions":[2.0533675E-1,1.9283552E-1,-9.974403E-2,2.4000043E-1,9.750382E-2,-9.8881714E-2,9.289057E-2],"split_indices":[2,4,0,3,0,0,0],"split_type":[0,0,0,0,0,0,0],"sum_hessian":[1.7078845E2,9.835583E1,7.243263E1,2.4095154E1,7.426067E1,1.2384448E1,1.1710707E1],"tree_param":{"num_deleted":"0","num_feature":"6","num_nodes":"7","size_leaf_vector":"1"}},{"base_weights":[2.6508665E-3,-9.435527E-1,7.540478E-1,-9.982478E-2,1.650955E-2,2.0205919E-2,9.8804966E-2,-9.907128E-2,9.260857E-2],"categories":[],"categories_nodes":[],"categories_segments":[],"categories_sizes":[],"default_left":[0,0,0,0,0,0,0,0,0],"id":38,"left_children":[1,3,5,-1,-1,7,-1,-1,-1],"loss_changes":[1.1357059E2,4.5326767E0,1.5180672E1,0E0,0E0,2.1669838E1,0E0,0E0,0E0],"parents":[2147483647,0,0,1,1,2,2,5,5],"right_children":[2,4,6,-1,-1,8,-1,-1,-1],"split_conditions":[2.8462128E-3,2.2086102E-1,1.9608594E-1,-9.982478E-2,1.650955E-2,4.4830498E-1,9.8804966E-2,-9.907128E-2,9.260857E-2],"split_indices":[1,4,4,0,0,3,0,0,0],"split_type":[0,0,0,0,0,0,0,0,0],"sum_hessian":[1.5776526E2,6.9658424E1,8.8106834E1,6.656426E1,3.0941634E0,2.1668137E1,6.64387E1,1.0143943E1,1.1524194E1],"tree_param":{"num_deleted":"0","num_feature":"6","num_nodes":"9","size_leaf_vector":"1"}},{"base_weights":[-7.196754E-3,-7.1966875E-1,9.3346745E-1,-1.0086324E-1,9.228405E-2,3.2264873E-2,9.898957E-2],"categories":[],"categories_nodes":[],"categories_segments":[],"categories_sizes":[],"default_left":[0,0,0,0,0,0,0],"id":39,"left_children":[1,3,5,-1,-1,-1,-1],"loss_changes":[9.569752E1,3.9537395E1,1.6689796E0,0E0,0E0,0E0,0E0],"parents":[2147483647,0,0,1,1,2,2],"right_children":[2,4,6,-1,-1,-1,-1],"split_conditions":[2.115042E-1,4.4830498E-1,2.5791168E-1,-1.0086324E-1,9.228405E-2,3.2264873E-2,9.898957E-2],"split_indices":[4,3,4,0,0,0,0],"split_type":[0,0,0,0,0,0,0],"sum_hessian":[1.4081967E2,8.03231E1,6.0496574E1,6.868608E1,1.1637014E1,5.8341055E0,5.466247E1],"tree_param":{"num_deleted":"0","num_feature":"6","num_nodes":"7","size_leaf_vector":"1"}},{"base_weights":[-0E0,6.9418204E-1,-9.892898E-2,-5.382997E-2,9.513002E-1,-9.7690456E-2,7.417631E-2,5.126741E-1,9.910701E-2,2.085056E-2,6.689935E-2],"categories":[],"categories_nodes":[],"categories_segments":[],"categories_sizes":[],"default_left":[0,0,0,0,0,0,0,0,0,0,0],"id":40,"left_children":[1,3,-1,5,7,-1,-1,9,-1,-1,-1],"loss_changes":[9.149974E1,1.5197121E1,0E0,1.6076708E1,3.6046982E-1,0E0,0E0,1.12085104E-1,0E0,0E0,0E0],"parents":[2147483647,0,0,1,1,3,3,4,4,7,7],"right_children":[2,4,-1,6,8,-1,-1,10,-1,-1,-1],"split_conditions":[2.0533675E-1,1.9283552E-1,-9.892898E-2,1E0,2.5791168E-1,-9.7690456E-2,7.417631E-2,2.1813816E-1,9.910701E-2,2.085056E-2,6.689935E-2],"split_indices":[2,4,0,5,4,0,0,0,0,0,0],"split_type":[0,0,0,0,0,0,0,0,0,0,0],"sum_hessian":[1.3123024E2,7.7284004E1,5.3946236E1,1.9872461E1,5.741154E1,9.151904E0,1.0720557E1,6.1365347E0,5.1275005E1,3.0925555E0,3.0439794E0],"tree_param":{"num_deleted":"0","num_feature":"6","num_nodes":"11","size_leaf_vector":"1"}},{"base_weights":[3.140119E-2,7.1362406E-1,-9.8639324E-2,8.205833E-2,8.5932827E-1,2.8870454E-1,-4.9037937E-2,4.9619904E-1,9.212008E-2,4.7034308E-1,-1.6316248E-2,1.027772E-2,8.081374E-2,1.2378362E-2,7.641432E-2],"categories":[],"categories_nodes":[],"categories_segments":[],"categories_sizes":[],"default_left":[0,0,0,0,0,0,0,0,0,0,0,0,0,0,0],"id":41,"left_children":[1,3,-1,5,7,9,-1,11,-1,13,-1,-1,-1,-1,-1],"loss_changes":[8.640918E1,6.696472E0,0E0,1.9207395E0,7.57061E-1,1.0869713E0,0E0,1.1989427E0,0E0,7.256384E-1,0E0,0E0,0E0,0E0,0E0],"parents":[2147483647,0,0,1,1,3,3,4,4,5,5,7,7,9,9],"right_children":[2,4,-1,6,8,10,-1,12,-1,14,-1,-1,-1,-1,-1],"split_conditions":[2.0533675E-1,1.0622971E-1,-9.8639324E-2,1.06806085E-1,6.3052006E-2,9.9028826E-2,-4.9037937E-2,5E-1,9.212008E-2,3.971328E-2,-1.6316248E-2,1.027772E-2,8.081374E-2,1.2378362E-2,7.641432E-2],"split_indices":[2,0,0,2,3,0,0,0,0,0,0,0,0,0,0],"split_type":[0,0,0,0,0,0,0,0,0,0,0,0,0,0,0],"sum_hessian":[1.22469406E2,7.355975E1,4.8909657E1,1.4210925E1,5.9348824E1,1.0934127E1,3.2767982E0,1.0188516E1,4.916031E1,7.927784E0,3.0063426E0,5.2354875E0,4.953028E0,4.4455767E0,3.4822075E0],"tree_param":{"num_deleted":"0","num_feature":"6","num_nodes":"15","size_leaf_vector":"1"}},{"base_weights":[4.696451E-3,-9.200209E-1,7.3350036E-1,-1.69681E-2,-9.8654084E-2,8.737277E-1,-8.1521854E-2,5.535638E-1,9.349926E-2,1.318376E-2,7.829631E-2],"categories":[],"categories_nodes":[],"categories_segments":[],"categories_sizes":[],"default_left":[0,0,0,0,0,0,0,0,0,0,0],"id":42,"left_children":[1,3,5,-1,-1,7,-1,9,-1,-1,-1],"loss_changes":[7.6426834E1,2.209488E0,1.4506912E1,0E0,0E0,4.8618317E-1,0E0,9.8091316E-1,0E0,0E0,0E0],"parents":[2147483647,0,0,1,1,2,2,5,5,7,7],"right_children":[2,4,6,-1,-1,8,-1,10,-1,-1,-1],"split_conditions":[2.8462128E-3,7.533729E-2,2.0533675E-1,-1.69681E-2,-9.8654084E-2,6.3052006E-2,-8.1521854E-2,2.005514E-1,9.349926E-2,1.318376E-2,7.829631E-2],"split_indices":[1,2,2,0,0,3,0,0,0,0,0],"split_type":[0,0,0,0,0,0,0,0,0,0,0],"sum_hessian":[1.1142977E2,4.8937523E1,6.2492245E1,4.396741E0,4.4540783E1,5.7762592E1,4.729653E0,1.1151876E1,4.6610718E1,4.6373086E0,6.514568E0],"tree_param":{"num_deleted":"0","num_feature":"6","num_nodes":"11","size_leaf_vector":"1"}},{"base_weights":[1.0410483E-2,-9.2710935E-2,7.3812944E-1,8.6305894E-2,8.846673E-2,8.394333E-2,-6.5038346E-2],"categories":[],"categories_nodes":[],"categories_segments":[],"categories_sizes":[],"default_left":[0,0,0,0,0,0,0],"id":43,"left_children":[1,-1,3,5,-1,-1,-1],"loss_changes":[7.0966125E1,0E0,5.426609E0,7.219723E0,0E0,0E0,0E0],"parents":[2147483647,0,0,2,2,3,3],"right_children":[2,-1,4,6,-1,-1,-1],"split_conditions":[2.8462128E-3,-9.2710935E-2,1.0622971E-1,1E-1,8.846673E-2,8.394333E-2,-6.5038346E-2],"split_indices":[1,0,0,1,0,0,0],"split_type":[0,0,0,0,0,0,0],"sum_hessian":[1.0204229E2,4.4413277E1,5.762901E1,1.0994618E1,4.663439E1,5.4348125E0,5.559806E0],"tree_param":{"num_deleted":"0","num_feature":"6","num_nodes":"7","size_leaf_vector":"1"}},{"base_weights":[1.4392231E-2,-9.0238655E-1,7.082622E-1,-1.3924859E-2,-9.797671E-2,8.516897E-1,-7.9842314E-2,6.555979E-1,9.583903E-2,7.8310156E-1,1.1836757E-2,9.097319E-2,4.5960307E-2],"categories":[],"categories_nodes":[],"categories_segments":[],"categories_sizes":[],"default_left":[0,0,0,0,0,0,0,0,0,0,0,0,0],"id":44,"left_children":[1,3,5,-1,-1,7,-1,9,-1,11,-1,-1,-1],"loss_changes":[6.210086E1,2.2327003E0,1.2708075E1,0E0,0E0,2.8455353E-1,0E0,1.2959394E0,0E0,1.4622593E-1,0E0,0E0,0E0],"parents":[2147483647,0,0,1,1,2,2,5,5,7,7,9,9],"right_children":[2,4,6,-1,-1,8,-1,10,-1,12,-1,-1,-1],"split_conditions":[2.8462128E-3,7.533729E-2,2.0533675E-1,-1.3924859E-2,-9.797671E-2,1.3844022E-1,-7.9842314E-2,1.02536745E-1,9.583903E-2,1E-1,1.1836757E-2,9.097319E-2,4.5960307E-2],"split_indices":[1,2,2,0,0,3,0,2,0,1,0,0,0],"split_type":[0,0,0,0,0,0,0,0,0,0,0,0,0],"sum_hessian":[9.564943E1,4.1014374E1,5.4635056E1,4.1526046E0,3.6861767E1,5.0343727E1,4.291325E0,2.0588387E1,2.9755342E1,1.611898E1,4.4694057E0,1.0059859E1,6.0591207E0],"tree_param":{"num_deleted":"0","num_feature":"6","num_nodes":"13","size_leaf_vector":"1"}},{"base_weights":[-2.0304157E-3,6.279547E-1,-9.741313E-2,2.1089317E-1,8.7225385E-2,4.533163E-1,-5.5263657E-2,-0E0,7.630639E-2,1.134831E-2,-1.3122903E-2],"categories":[],"categories_nodes":[],"categories_segments":[],"categories_sizes":[],"default_left":[0,0,0,0,0,0,0,0,0,0,0],"id":45,"left_children":[1,3,-1,5,-1,7,-1,9,-1,-1,-1],"loss_changes":[5.407782E1,5.1572304E0,0E0,4.169636E0,0E0,2.4234002E0,0E0,1.309406E-1,0E0,0E0,0E0],"parents":[2147483647,0,0,1,1,3,3,5,5,7,7],"right_children":[2,4,-1,6,-1,8,-1,10,-1,-1,-1],"split_conditions":[2.0533675E-1,2.005514E-1,-9.741313E-2,1.1916127E-1,8.7225385E-2,7.7235594E-2,-5.5263657E-2,9.9028826E-2,7.630639E-2,1.134831E-2,-1.3122903E-2],"split_indices":[2,0,0,2,0,3,0,0,0,0,0],"split_type":[0,0,0,0,0,0,0,0,0,0,0],"sum_hessian":[8.624803E1,5.2485283E1,3.376275E1,2.0226938E1,3.2258343E1,1.5760263E1,4.466675E0,6.683154E0,9.077109E0,3.2813778E0,3.4017763E0],"tree_param":{"num_deleted":"0","num_feature":"6","num_nodes":"11","size_leaf_vector":"1"}},{"base_weights":[1.782355E-2,-7.0949507E-1,9.003636E-1,-1.00163214E-1,8.625182E-2,2.0785557E-2,9.719069E-2],"categories":[],"categories_nodes":[],"categories_segments":[],"categories_sizes":[],"default_left":[0,0,0,0,0,0,0],"id":46,"left_children":[1,3,5,-1,-1,-1,-1],"loss_changes":[5.411577E1,2.2073433E1,1.5690784E0,0E0,0E0,0E0,0E0],"parents":[2147483647,0,0,1,1,2,2],"right_children":[2,4,6,-1,-1,-1,-1],"split_conditions":[2.115042E-1,4.4830498E-1,2.5791168E-1,-1.00163214E-1,8.625182E-2,2.0785557E-2,9.719069E-2],"split_indices":[4,3,4,0,0,0,0],"split_type":[0,0,0,0,0,0,0],"sum_hessian":[8.2282265E1,4.5153305E1,3.712896E1,3.8436802E1,6.716503E0,3.9731963E0,3.3155766E1],"tree_param":{"num_deleted":"0","num_feature":"6","num_nodes":"7","size_leaf_vector":"1"}},{"base_weights":[-1.0872742E-3,-7.181763E-1,8.696844E-1,-9.945332E-2,8.414191E-2,1.7537815E-2,9.639448E-2],"categories":[],"categories_nodes":[],"categories_segments":[],"categories_sizes":[],"default_left":[0,0,0,0,0,0,0],"id":47,"left_children":[1,3,5,-1,-1,-1,-1],"loss_changes":[4.760864E1,1.8905811E1,1.967104E0,0E0,0E0,0E0,0E0],"parents":[2147483647,0,0,1,1,2,2],"right_children":[2,4,6,-1,-1,-1,-1],"split_conditions":[2.0568568E-1,4.4830498E-1,2.5791168E-1,-9.945332E-2,8.414191E-2,1.7537815E-2,9.639448E-2],"split_indices":[4,3,4,0,0,0,0],"split_type":[0,0,0,0,0,0,0],"sum_hessian":[7.426848E1,4.0887394E1,3.338109E1,3.5095055E1,5.792337E0,4.4589176E0,2.8922169E1],"tree_param":{"num_deleted":"0","num_feature":"6","num_nodes":"7","size_leaf_vector":"1"}},{"base_weights":[2.1790791E-2,-8.876804E-1,6.9871634E-1,-9.6550666E-2,-1.2219751E-2,-2.5729344E-3,9.5432416E-2,-8.569085E-2,6.814277E-2],"categories":[],"categories_nodes":[],"categories_segments":[],"categories_sizes":[],"default_left":[0,0,0,0,0,0,0,0,0],"id":48,"left_children":[1,3,5,-1,-1,7,-1,-1,-1],"loss_changes":[4.2866867E1,1.5409374E0,7.2643604E0,0E0,0E0,7.3640447E0,0E0,0E0,0E0],"parents":[2147483647,0,0,1,1,2,2,5,5],"right_children":[2,4,6,-1,-1,8,-1,-1,-1],"split_conditions":[2.8462128E-3,1.9874638E-1,1.9608594E-1,-9.6550666E-2,-1.2219751E-2,1E0,9.5432416E-2,-8.569085E-2,6.814277E-2],"split_indices":[1,4,4,0,0,5,0,0,0],"split_type":[0,0,0,0,0,0,0,0,0],"sum_hessian":[6.765252E1,2.867187E1,3.8980648E1,2.5670069E1,3.0018013E0,1.0572498E1,2.8408148E1,4.6535263E0,5.918972E0],"tree_param":{"num_deleted":"0","num_feature":"6","num_nodes":"9","size_leaf_vector":"1"}},{"base_weights":[3.3917222E-2,6.648839E-1,-9.2124164E-2,-3.7848193E-2,8.644905E-2],"categories":[],"categories_nodes":[],"categories_segments":[],"categories_sizes":[],"default_left":[0,0,0,0,0],"id":49,"left_children":[1,3,-1,-1,-1],"loss_changes":[3.845508E1,8.390175E0,0E0,0E0,0E0],"parents":[2147483647,0,0,1,1],"right_children":[2,4,-1,-1,-1],"split_conditions":[1.8811928E-1,2.8462128E-3,-9.2124164E-2,-3.7848193E-2,8.644905E-2],"split_indices":[2,1,0,0,0],"split_type":[0,0,0,0,0],"sum_hessian":[6.1833687E1,3.748207E1,2.4351616E1,5.7948127E0,3.1687256E1],"tree_param":{"num_deleted":"0","num_feature":"6","num_nodes":"5","size_leaf_vector":"1"}},{"base_weights":[-1.7479587E-2,5.33562E-1,-9.539414E-2,1.872793E-1,9.040202E-2,-4.920714E-2,7.9231195E-2,2.1477984E-1,-8.084162E-2,-1.0310606E-2,3.4193417E-1,9.972288E-3,5.1544495E-2],"categories":[],"categories_nodes":[],"categories_segments":[],"categories_sizes":[],"default_left":[0,0,0,0,0,0,0,0,0,0,0,0,0],"id":50,"left_children":[1,3,-1,5,-1,7,-1,9,-1,-1,11,-1,-1],"loss_changes":[3.0763458E1,4.5236015E0,0E0,3.0820556E0,0E0,3.387724E0,0E0,5.5921185E-1,0E0,0E0,2.776463E-1,0E0,0E0],"parents":[2147483647,0,0,1,1,3,3,5,5,7,7,10,10],"right_children":[2,4,-1,6,-1,8,-1,10,-1,-1,12,-1,-1],"split_conditions":[2.0533675E-1,1.5500128E-1,-9.539414E-2,5E-1,9.040202E-2,1.02536745E-1,7.9231195E-2,1.873603E-2,-8.084162E-2,-1.0310606E-2,1.0622971E-1,9.972288E-3,5.1544495E-2],"split_indices":[2,3,0,0,0,2,0,2,0,0,0,0,0],"split_type":[0,0,0,0,0,0,0,0,0,0,0,0,0],"sum_hessian":[5.754789E1,3.643306E1,2.111483E1,1.9748646E1,1.6684414E1,1.4740486E1,5.008159E0,1.137176E1,3.368726E0,3.0784113E0,8.293349E0,4.359208E0,3.9341412E0],"tree_param":{"num_deleted":"0","num_feature":"6","num_nodes":"13","size_leaf_vector":"1"}},{"base_weights":[-9.0773933E-4,-6.610977E-1,9.330137E-2,-9.910303E-2,8.297803E-2],"categories":[],"categories_nodes":[],"categories_segments":[],"categories_sizes":[],"default_left":[0,0,0,0,0],"id":51,"left_children":[1,3,-1,-1,-1],"loss_changes":[3.419313E1,1.686317E1,0E0,0E0,0E0],"parents":[2147483647,0,0,1,1],"right_children":[2,4,-1,-1,-1],"split_conditions":[2.3615608E-1,4.4830498E-1,9.330137E-2,-9.910303E-2,8.297803E-2],"split_indices":[4,3,0,0,0],"split_type":[0,0,0,0,0],"sum_hessian":[5.3501114E1,3.157788E1,2.1923233E1,2.6185379E1,5.3925023E0],"tree_param":{"num_deleted":"0","num_feature":"6","num_nodes":"5","size_leaf_vector":"1"}},{"base_weights":[7.901426E-3,-6.95105E-1,8.654126E-1,-9.825175E-2,7.834069E-2,2.7512718E-2,9.5019214E-2],"categories":[],"categories_nodes":[],"categories_segments":[],"categories_sizes":[],"default_left":[0,0,0,0,0,0,0],"id":52,"left_children":[1,3,5,-1,-1,-1,-1],"loss_changes":[3.0942698E1,1.2744071E1,7.755947E-1,0E0,0E0,0E0,0E0],"parents":[2147483647,0,0,1,1,2,2],"right_children":[2,4,6,-1,-1,-1,-1],"split_conditions":[2.115042E-1,4.4830498E-1,2.9074913E-1,-9.825175E-2,7.834069E-2,2.7512718E-2,9.5019214E-2],"split_indices":[4,3,4,0,0,0,0],"split_type":[0,0,0,0,0,0,0],"sum_hessian":[4.9302444E1,2.7131899E1,2.2170547E1,2.305355E1,4.0783477E0,3.4656143E0,1.8704933E1],"tree_param":{"num_deleted":"0","num_feature":"6","num_nodes":"7","size_leaf_vector":"1"}},{"base_weights":[2.3309736E-2,-6.188937E-1,9.206014E-2,-9.727322E-2,8.170584E-2],"categories":[],"categories_nodes":[],"categories_segments":[],"categories_sizes":[],"default_left":[0,0,0,0,0],"id":53,"left_children":[1,3,-1,-1,-1],"loss_changes":[2.764216E1,1.4978678E1,0E0,0E0,0E0],"parents":[2147483647,0,0,1,1],"right_children":[2,4,-1,-1,-1],"split_conditions":[2.3615608E-1,4.4830498E-1,9.206014E-2,-9.727322E-2,8.170584E-2],"split_indices":[4,3,0,0,0],"split_type":[0,0,0,0,0],"sum_hessian":[4.592846E1,2.6885193E1,1.9043266E1,2.1884722E1,5.000472E0],"tree_param":{"num_deleted":"0","num_feature":"6","num_nodes":"5","size_leaf_vector":"1"}},{"base_weights":[2.2931127E-2,-6.693363E-1,8.3042204E-1,-9.652761E-2,4.371014E-2,1.955356E-2,9.39198E-2],"categories":[],"categories_nodes":[],"categories_segments":[],"categories_sizes":[],"default_left":[0,0,0,0,0,0,0],"id":54,"left_children":[1,3,5,-1,-1,-1,-1],"loss_changes":[2.4210167E1,8.089252E0,1.0862904E0,0E0,0E0,0E0,0E0],"parents":[2147483647,0,0,1,1,2,2],"right_children":[2,4,6,-1,-1,-1,-1],"split_conditions":[2.115042E-1,1E0,2.9074913E-1,-9.652761E-2,4.371014E-2,1.955356E-2,9.39198E-2],"split_indices":[4,5,4,0,0,0,0],"split_type":[0,0,0,0,0,0,0],"sum_hessian":[4.1286655E1,2.2254753E1,1.9031902E1,1.7730362E1,4.524392E0,3.3274844E0,1.5704417E1],"tree_param":{"num_deleted":"0","num_feature":"6","num_nodes":"7","size_leaf_vector":"1"}},{"base_weights":[-1.8685384E-2,-9.004459E-2,5.999589E-1,2.0688653E-1,8.773786E-2,7.4898556E-2,-1.1479213E-1,-8.455058E-2,7.283881E-2],"categories":[],"categories_nodes":[],"categories_segments":[],"categories_sizes":[],"default_left":[0,0,0,0,0,0,0,0,0],"id":55,"left_children":[1,-1,3,5,-1,-1,7,-1,-1],"loss_changes":[2.1420343E1,0E0,2.2176762E0,2.0627851E0,0E0,0E0,5.333224E0,0E0,0E0],"parents":[2147483647,0,0,2,2,3,3,6,6],"right_children":[2,-1,4,6,-1,-1,8,-1,-1],"split_conditions":[2.8462128E-3,-9.004459E-2,1.3844022E-1,1E-1,8.773786E-2,7.4898556E-2,2.1134351E-1,-8.455058E-2,7.283881E-2],"split_indices":[1,0,3,1,0,0,1,0,0],"split_type":[0,0,0,0,0,0,0,0,0],"sum_hessian":[3.722221E1,1.5226229E1,2.1995981E1,9.972414E0,1.2023567E1,3.3348927E0,6.6375213E0,3.6179702E0,3.0195513E0],"tree_param":{"num_deleted":"0","num_feature":"6","num_nodes":"9","size_leaf_vector":"1"}},{"base_weights":[1.2759124E-2,-7.818633E-2,6.155926E-1,2.6729113E-1,8.642815E-2,7.673674E-2,-9.965261E-3],"categories":[],"categories_nodes":[],"categories_segments":[],"categories_sizes":[],"default_left":[0,0,0,0,0,0,0],"id":56,"left_children":[1,-1,3,5,-1,-1,-1],"loss_changes":[1.7879557E1,0E0,1.5010796E0,2.0680664E0,0E0,0E0,0E0],"parents":[2147483647,0,0,2,2,3,3],"right_children":[2,-1,4,6,-1,-1,-1],"split_conditions":[2.8462128E-3,-7.818633E-2,1.3844022E-1,1E-1,8.642815E-2,7.673674E-2,-9.965261E-3],"split_indices":[1,0,3,1,0,0,0],"split_type":[0,0,0,0,0,0,0],"sum_hessian":[3.535483E1,1.5051671E1,2.0303162E1,9.489517E0,1.0813644E1,3.6696904E0,5.8198266E0],"tree_param":{"num_deleted":"0","num_feature":"6","num_nodes":"7","size_leaf_vector":"1"}},{"base_weights":[1.8884944E-2,-5.709894E-1,9.1611855E-2,-9.542443E-2,7.829451E-2],"categories":[],"categories_nodes":[],"categories_segments":[],"categories_sizes":[],"default_left":[0,0,0,0,0],"id":57,"left_children":[1,3,-1,-1,-1],"loss_changes":[1.8310934E1,1.1550807E1,0E0,0E0,0E0],"parents":[2147483647,0,0,1,1],"right_children":[2,4,-1,-1,-1],"split_conditions":[2.5791168E-1,4.4830498E-1,9.1611855E-2,-9.542443E-2,7.829451E-2],"split_indices":[4,3,0,0,0],"split_type":[0,0,0,0,0],"sum_hessian":[3.254399E1,1.9787271E1,1.275672E1,1.5709489E1,4.0777817E0],"tree_param":{"num_deleted":"0","num_feature":"6","num_nodes":"5","size_leaf_vector":"1"}},{"base_weights":[2.4952823E-2,-5.707132E-1,9.056397E-2,-9.384342E-2,4.4064287E-2],"categories":[],"categories_nodes":[],"categories_segments":[],"categories_sizes":[],"default_left":[0,0,0,0,0],"id":58,"left_children":[1,3,-1,-1,-1],"loss_changes":[1.689048E1,7.5763445E0,0E0,0E0,0E0],"parents":[2147483647,0,0,1,1],"right_children":[2,4,-1,-1,-1],"split_conditions":[2.5791168E-1,1E0,9.056397E-2,-9.384342E-2,4.4064287E-2],"split_indices":[4,5,0,0,0],"split_type":[0,0,0,0,0],"sum_hessian":[3.0148066E1,1.8126411E1,1.2021655E1,1.3418524E1,4.707887E0],"tree_param":{"num_deleted":"0","num_feature":"6","num_nodes":"5","size_leaf_vector":"1"}},{"base_weights":[3.0775613E-3,-6.0861814E-1,8.509158E-2,-9.437787E-2,7.087559E-2],"categories":[],"categories_nodes":[],"categories_segments":[],"categories_sizes":[],"default_left":[0,0,0,0,0],"id":59,"left_children":[1,3,-1,-1,-1],"loss_changes":[1.54442835E1,8.289476E0,0E0,0E0,0E0],"parents":[2147483647,0,0,1,1],"right_children":[2,4,-1,-1,-1],"split_conditions":[2.3615608E-1,2.6633784E-1,8.509158E-2,-9.437787E-2,7.087559E-2],"split_indices":[4,3,0,0,0],"split_type":[0,0,0,0,0],"sum_hessian":[2.7734331E1,1.6206163E1,1.1528168E1,1.3205882E1,3.0002818E0],"tree_param":{"num_deleted":"0","num_feature":"6","num_nodes":"5","size_leaf_vector":"1"}},{"base_weights":[3.2151402E-3,-7.972809E-2,5.7261086E-1,7.273555E-2,-4.135412E-3],"categories":[],"categories_nodes":[],"categories_segments":[],"categories_sizes":[],"default_left":[0,0,0,0,0],"id":60,"left_children":[1,-1,3,-1,-1],"loss_changes":[1.2629953E1,0E0,1.6464081E0,0E0,0E0],"parents":[2147483647,0,0,2,2],"right_children":[2,-1,4,-1,-1],"split_conditions":[2.8462128E-3,-7.972809E-2,1.3771449E-1,7.273555E-2,-4.135412E-3],"split_indices":[1,0,2,0,0],"split_type":[0,0,0,0,0],"sum_hessian":[2.5757164E1,1.0466619E1,1.5290545E1,1.2195072E1,3.0954735E0],"tree_param":{"num_deleted":"0","num_feature":"6","num_nodes":"5","size_leaf_vector":"1"}},{"base_weights":[-0E0,4.7322562E-1,-8.8232376E-2,1.5756774E-1,8.383057E-2,3.462972E-2,-1.9498652E-2],"categories":[],"categories_nodes":[],"categories_segments":[],"categories_sizes":[],"default_left":[0,0,0,0,0,0,0],"id":61,"left_children":[1,3,-1,5,-1,-1,-1],"loss_changes":[1.1007928E1,1.7460103E0,0E0,7.8675526E-1,0E0,0E0,0E0],"parents":[2147483647,0,0,1,1,3,3],"right_children":[2,4,-1,6,-1,-1,-1],"split_conditions":[2.0533675E-1,1.6419491E-1,-8.8232376E-2,9.246553E-2,8.383057E-2,3.462972E-2,-1.9498652E-2],"split_indices":[2,3,0,2,0,0,0],"split_type":[0,0,0,0,0,0,0],"sum_hessian":[2.4364752E1,1.6161407E1,8.203346E0,9.582036E0,6.579371E0,6.4373717E0,3.144664E0],"tree_param":{"num_deleted":"0","num_feature":"6","num_nodes":"7","size_leaf_vector":"1"}},{"base_weights":[8.004858E-3,-6.013545E-1,8.5157685E-2,-9.275371E-2,4.4118445E-2],"categories":[],"categories_nodes":[],"categories_segments":[],"categories_sizes":[],"default_left":[0,0,0,0,0],"id":62,"left_children":[1,3,-1,-1,-1],"loss_changes":[1.2752612E1,5.325621E0,0E0,0E0,0E0],"parents":[2147483647,0,0,1,1],"right_children":[2,4,-1,-1,-1],"split_conditions":[2.3615608E-1,1.5500128E-1,8.5157685E-2,-9.275371E-2,4.4118445E-2],"split_indices":[4,3,0,0,0],"split_type":[0,0,0,0,0],"sum_hessian":[2.276377E1,1.3314529E1,9.449241E0,1.02986E1,3.0159283E0],"tree_param":{"num_deleted":"0","num_feature":"6","num_nodes":"5","size_leaf_vector":"1"}},{"base_weights":[1.4840782E-2,-5.657675E-1,8.738387E-2,-9.2483036E-2,5.3567905E-2],"categories":[],"categories_nodes":[],"categories_segments":[],"categories_sizes":[],"default_left":[0,0,0,0,0],"id":63,"left_children":[1,3,-1,-1,-1],"loss_changes":[1.1765594E1,6.065409E0,0E0,0E0,0E0],"parents":[2147483647,0,0,1,1],"right_children":[2,4,-1,-1,-1],"split_conditions":[2.5791168E-1,1.6419491E-1,8.738387E-2,-9.2483036E-2,5.3567905E-2],"split_indices":[4,3,0,0,0],"split_type":[0,0,0,0,0],"sum_hessian":[2.1537527E1,1.2985441E1,8.552087E0,9.982397E0,3.0030432E0],"tree_param":{"num_deleted":"0","num_feature":"6","num_nodes":"5","size_leaf_vector":"1"}},{"base_weights":[2.852387E-2,-7.0363745E-2,5.2619636E-1,1.5856177E-2,7.9643E-2],"categories":[],"categories_nodes":[],"categories_segments":[],"categories_sizes":[],"default_left":[0,0,0,0,0],"id":64,"left_children":[1,-1,3,-1,-1],"loss_changes":[7.925439E0,0E0,1.0723567E0,0E0,0E0],"parents":[2147483647,0,0,2,2],"right_children":[2,-1,4,-1,-1],"split_conditions":[2.8462128E-3,-7.0363745E-2,1.3844022E-1,1.5856177E-2,7.9643E-2],"split_indices":[1,0,3,0,0],"split_type":[0,0,0,0,0],"sum_hessian":[1.9783258E1,7.7568355E0,1.2026423E1,5.924014E0,6.1024094E0],"tree_param":{"num_deleted":"0","num_feature":"6","num_nodes":"5","size_leaf_vector":"1"}},{"base_weights":[4.7800716E-2,5.1803446E-1,-8.4578976E-2,-0E0,6.757688E-2],"categories":[],"categories_nodes":[],"categories_segments":[],"categories_sizes":[],"default_left":[0,0,0,0,0],"id":65,"left_children":[1,3,-1,-1,-1],"loss_changes":[8.626146E0,1.1599836E0,0E0,0E0,0E0],"parents":[2147483647,0,0,1,1],"right_children":[2,4,-1,-1,-1],"split_conditions":[2.0533675E-1,2.6025802E-2,-8.4578976E-2,-0E0,6.757688E-2],"split_indices":[2,1,0,0,0],"split_type":[0,0,0,0,0],"sum_hessian":[1.8564125E1,1.2512082E1,6.052042E0,3.0315363E0,9.480546E0],"tree_param":{"num_deleted":"0","num_feature":"6","num_nodes":"5","size_leaf_vector":"1"}},{"base_weights":[3.9402712E-2,-5.6749517E-1,7.81019E-2,-3.2817803E-3,-8.476302E-2],"categories":[],"categories_nodes":[],"categories_segments":[],"categories_sizes":[],"default_left":[0,0,0,0,0],"id":66,"left_children":[1,3,-1,-1,-1],"loss_changes":[9.052261E0,1.53146E0,0E0,0E0,0E0],"parents":[2147483647,0,0,1,1],"right_children":[2,4,-1,-1,-1],"split_conditions":[2.2851105E-1,1.5633614E-1,7.81019E-2,-3.2817803E-3,-8.476302E-2],"split_indices":[4,2,0,0,0],"split_type":[0,0,0,0,0],"sum_hessian":[1.8080124E1,9.998142E0,8.081983E0,3.9442E0,6.053942E0],"tree_param":{"num_deleted":"0","num_feature":"6","num_nodes":"5","size_leaf_vector":"1"}},{"base_weights":[-0E0,-5.4794115E-1,8.3011955E-2,-8.948925E-3,-8.404977E-2],"categories":[],"categories_nodes":[],"categories_segments":[],"categories_sizes":[],"default_left":[0,0,0,0,0],"id":67,"left_children":[1,3,-1,-1,-1],"loss_changes":[8.677364E0,1.3690569E0,0E0,0E0,0E0],"parents":[2147483647,0,0,1,1],"right_children":[2,4,-1,-1,-1],"split_conditions":[2.5791168E-1,1.5633614E-1,8.3011955E-2,-8.948925E-3,-8.404977E-2],"split_indices":[4,2,0,0,0],"split_type":[0,0,0,0,0],"sum_hessian":[1.706016E1,1.0461642E1,6.5985184E0,4.717214E0,5.7444277E0],"tree_param":{"num_deleted":"0","num_feature":"6","num_nodes":"5","size_leaf_vector":"1"}},{"base_weights":[3.0227395E-2,-5.4621047E-1,7.8400694E-2,-8.513819E-2,1.0047506E-2],"categories":[],"categories_nodes":[],"categories_segments":[],"categories_sizes":[],"default_left":[0,0,0,0,0],"id":68,"left_children":[1,3,-1,-1,-1],"loss_changes":[7.7803025E0,2.1482103E0,0E0,0E0,0E0],"parents":[2147483647,0,0,1,1],"right_children":[2,4,-1,-1,-1],"split_conditions":[2.2851105E-1,1.260416E-1,7.8400694E-2,-8.513819E-2,1.0047506E-2],"split_indices":[4,3,0,0,0],"split_type":[0,0,0,0,0],"sum_hessian":[1.5865754E1,9.071337E0,6.7944174E0,6.0530167E0,3.0183198E0],"tree_param":{"num_deleted":"0","num_feature":"6","num_nodes":"5","size_leaf_vector":"1"}},{"base_weights":[-0E0,-5.1240903E-1,8.0810115E-2,-8.771717E-2,2.5360515E-2],"categories":[],"categories_nodes":[],"categories_segments":[],"categories_sizes":[],"default_left":[0,0,0,0,0],"id":69,"left_children":[1,3,-1,-1,-1],"loss_changes":[7.0261564E0,3.2127554E0,0E0,0E0,0E0],"parents":[2147483647,0,0,1,1],"right_children":[2,4,-1,-1,-1],"split_conditions":[2.5791168E-1,1.3410434E-1,8.0810115E-2,-8.771717E-2,2.5360515E-2],"split_indices":[4,3,0,0,0],"split_type":[0,0,0,0,0],"sum_hessian":[1.5025002E1,9.478896E0,5.546106E0,6.4113545E0,3.0675414E0],"tree_param":{"num_deleted":"0","num_feature":"6","num_nodes":"5","size_leaf_vector":"1"}},{"base_weights":[9.829173E-3,-4.6941563E-1,7.988961E-2,-8.178919E-2,-0E0],"categories":[],"categories_nodes":[],"categories_segments":[],"categories_sizes":[],"default_left":[0,0,0,0,0],"id":70,"left_children":[1,3,-1,-1,-1],"loss_changes":[6.2457314E0,1.6657093E0,0E0,0E0,0E0],"parents":[2147483647,0,0,1,1],"right_children":[2,4,-1,-1,-1],"split_conditions":[2.5791168E-1,2.8462128E-3,7.988961E-2,-8.178919E-2,-0E0],"split_indices":[4,1,0,0,0],"split_type":[0,0,0,0,0],"sum_hessian":[1.4437452E1,9.155294E0,5.282158E0,4.8351974E0,4.320097E0],"tree_param":{"num_deleted":"0","num_feature":"6","num_nodes":"5","size_leaf_vector":"1"}},{"base_weights":[1.6310269E-2,-4.435229E-1,8.050485E-2,-8.075542E-2,4.146563E-3],"categories":[],"categories_nodes":[],"categories_segments":[],"categories_sizes":[],"default_left":[0,0,0,0,0],"id":71,"left_children":[1,3,-1,-1,-1],"loss_changes":[5.45046E0,1.7649351E0,0E0,0E0,0E0],"parents":[2147483647,0,0,1,1],"right_children":[2,4,-1,-1,-1],"split_conditions":[2.9074913E-1,2.8462128E-3,8.050485E-2,-8.075542E-2,4.146563E-3],"split_indices":[4,1,0,0,0],"split_type":[0,0,0,0,0],"sum_hessian":[1.2943804E1,8.37316E0,4.5706434E0,4.520885E0,3.8522751E0],"tree_param":{"num_deleted":"0","num_feature":"6","num_nodes":"5","size_leaf_vector":"1"}},{"base_weights":[-8.599569E-3,-4.3479034E-1,7.822555E-2,-8.5208885E-2,2.7935147E-2],"categories":[],"categories_nodes":[],"categories_segments":[],"categories_sizes":[],"default_left":[0,0,0,0,0],"id":72,"left_children":[1,3,-1,-1,-1],"loss_changes":[4.873616E0,3.1359777E0,0E0,0E0,0E0],"parents":[2147483647,0,0,1,1],"right_children":[2,4,-1,-1,-1],"split_conditions":[2.9074913E-1,1.3410434E-1,7.822555E-2,-8.5208885E-2,2.7935147E-2],"split_indices":[4,3,0,0,0],"split_type":[0,0,0,0,0],"sum_hessian":[1.2553407E1,8.532127E0,4.02128E0,5.3517647E0,3.180363E0],"tree_param":{"num_deleted":"0","num_feature":"6","num_nodes":"5","size_leaf_vector":"1"}},{"base_weights":[-0E0,-4.273645E-1,7.813498E-2,-8.376484E-2,2.5127942E-2],"categories":[],"categories_nodes":[],"categories_segments":[],"categories_sizes":[],"default_left":[0,0,0,0,0],"id":73,"left_children":[1,3,-1,-1,-1],"loss_changes":[4.682541E0,2.771739E0,0E0,0E0,0E0],"parents":[2147483647,0,0,1,1],"right_children":[2,4,-1,-1,-1],"split_conditions":[2.9074913E-1,1.3410434E-1,7.813498E-2,-8.376484E-2,2.5127942E-2],"split_indices":[4,3,0,0,0],"split_type":[0,0,0,0,0],"sum_hessian":[1.1969126E1,7.9881053E0,3.9810202E0,4.924178E0,3.0639272E0],"tree_param":{"num_deleted":"0","num_feature":"6","num_nodes":"5","size_leaf_vector":"1"}},{"base_weights":[4.071599E-2,4.568191E-1,-7.07778E-2,3.0939009E-3,7.657945E-2],"categories":[],"categories_nodes":[],"categories_segments":[],"categories_sizes":[],"default_left":[0,0,0,0,0],"id":74,"left_children":[1,3,-1,-1,-1],"loss_changes":[4.004524E0,9.943124E-1,0E0,0E0,0E0],"parents":[2147483647,0,0,1,1],"right_children":[2,4,-1,-1,-1],"split_conditions":[1.8373537E-1,2.5791168E-1,-7.07778E-2,3.0939009E-3,7.657945E-2],"split_indices":[2,4,0,0,0],"split_type":[0,0,0,0,0],"sum_hessian":[1.0900099E1,7.3418813E0,3.5582175E0,3.685589E0,3.6562924E0],"tree_param":{"num_deleted":"0","num_feature":"6","num_nodes":"5","size_leaf_vector":"1"}},{"base_weights":[3.7609227E-3,-4.7703326E-2,6.229573E-2],"categories":[],"categories_nodes":[],"categories_segments":[],"categories_sizes":[],"default_left":[0,0,0],"id":75,"left_children":[1,-1,-1],"loss_changes":[3.7401745E0,0E0,0E0],"parents":[2147483647,0,0],"right_children":[2,-1,-1],"split_conditions":[2.0568568E-1,-4.7703326E-2,6.229573E-2],"split_indices":[4,0,0],"split_type":[0,0,0],"sum_hessian":[1.0516095E1,5.957952E0,4.558143E0],"tree_param":{"num_deleted":"0","num_feature":"6","num_nodes":"3","size_leaf_vector":"1"}},{"base_weights":[4.4808753E-2,4.1033208E-1,-6.725405E-2,-1.6610943E-3,6.916616E-2],"categories":[],"categories_nodes":[],"categories_segments":[],"categories_sizes":[],"default_left":[0,0,0,0,0],"id":76,"left_children":[1,3,-1,-1,-1],"loss_changes":[3.169992E0,1.0508447E0,0E0,0E0,0E0],"parents":[2147483647,0,0,1,1],"right_children":[2,4,-1,-1,-1],"split_conditions":[1.8811928E-1,2.115042E-1,-6.725405E-2,-1.6610943E-3,6.916616E-2],"split_indices":[2,4,0,0,0],"split_type":[0,0,0,0,0],"sum_hessian":[1.0137148E1,7.091224E0,3.0459235E0,3.0492346E0,4.0419893E0],"tree_param":{"num_deleted":"0","num_feature":"6","num_nodes":"5","size_leaf_vector":"1"}},{"base_weights":[1.0333626E-2,-3.5114896E-1,7.317298E-2,-7.481835E-2,6.8117077E-3],"categories":[],"categories_nodes":[],"categories_segments":[],"categories_sizes":[],"default_left":[0,0,0,0,0],"id":77,"left_children":[1,3,-1,-1,-1],"loss_changes":[3.153203E0,1.4315491E0,0E0,0E0,0E0],"parents":[2147483647,0,0,1,1],"right_children":[2,4,-1,-1,-1],"split_conditions":[2.9074913E-1,2.8462128E-3,7.317298E-2,-7.481835E-2,6.8117077E-3],"split_indices":[4,1,0,0,0],"split_type":[0,0,0,0,0],"sum_hessian":[9.960522E0,6.885101E0,3.0754209E0,3.2558737E0,3.6292272E0],"tree_param":{"num_deleted":"0","num_feature":"6","num_nodes":"5","size_leaf_vector":"1"}},{"base_weights":[2.9702868E-2,-4.142001E-2,5.8743197E-2],"categories":[],"categories_nodes":[],"categories_segments":[],"categories_sizes":[],"default_left":[0,0,0],"id":78,"left_children":[1,-1,-1],"loss_changes":[2.7494662E0,0E0,0E0],"parents":[2147483647,0,0],"right_children":[2,-1,-1],"split_conditions":[1.9608594E-1,-4.142001E-2,5.8743197E-2],"split_indices":[4,0,0],"split_type":[0,0,0],"sum_hessian":[9.052722E0,5.084198E0,3.968524E0],"tree_param":{"num_deleted":"0","num_feature":"6","num_nodes":"3","size_leaf_vector":"1"}},{"base_weights":[2.4066664E-2,-5.7730306E-2,4.118468E-2],"categories":[],"categories_nodes":[],"categories_segments":[],"categories_sizes":[],"default_left":[0,0,0],"id":79,"left_children":[1,-1,-1],"loss_changes":[2.6205227E0,0E0,0E0],"parents":[2147483647,0,0],"right_children":[2,-1,-1],"split_conditions":[2.8462128E-3,-5.7730306E-2,4.118468E-2],"split_indices":[1,0,0],"split_type":[0,0,0],"sum_hessian":[9.288661E0,3.34877E0,5.9398913E0],"tree_param":{"num_deleted":"0","num_feature":"6","num_nodes":"3","size_leaf_vector":"1"}},{"base_weights":[-2.121089E-2,-4.069936E-2,6.09046E-2],"categories":[],"categories_nodes":[],"categories_segments":[],"categories_sizes":[],"default_left":[0,0,0],"id":80,"left_children":[1,-1,-1],"loss_changes":[2.6036828E0,0E0,0E0],"parents":[2147483647,0,0],"right_children":[2,-1,-1],"split_conditions":[1.6419491E-1,-4.069936E-2,6.09046E-2],"split_indices":[3,0,0],"split_type":[0,0,0],"sum_hessian":[8.7721E0,5.759559E0,3.0125415E0],"tree_param":{"num_deleted":"0","num_feature":"6","num_nodes":"3","size_leaf_vector":"1"}},{"base_weights":[-5.3313025E-3,-3.9961353E-2,5.768841E-2],"categories":[],"categories_nodes":[],"categories_segments":[],"categories_sizes":[],"default_left":[0,0,0],"id":81,"left_children":[1,-1,-1],"loss_changes":[2.4202957E0,0E0,0E0],"parents":[2147483647,0,0],"right_children":[2,-1,-1],"split_conditions":[1E0,-3.9961353E-2,5.768841E-2],"split_indices":[5,0,0],"split_type":[0,0,0],"sum_hessian":[8.616305E0,5.4266872E0,3.1896176E0],"tree_param":{"num_deleted":"0","num_feature":"6","num_nodes":"3","size_leaf_vector":"1"}},{"base_weights":[6.504509E-3,-4.0884968E-2,5.664524E-2],"categories":[],"categories_nodes":[],"categories_segments":[],"categories_sizes":[],"default_left":[0,0,0],"id":82,"left_children":[1,-1,-1],"loss_changes":[2.4131927E0,0E0,0E0],"parents":[2147483647,0,0],"right_children":[2,-1,-1],"split_conditions":[2.0568568E-1,-4.0884968E-2,5.664524E-2],"split_indices":[4,0,0],"split_type":[0,0,0],"sum_hessian":[8.312364E0,4.82475E0,3.487614E0],"tree_param":{"num_deleted":"0","num_feature":"6","num_nodes":"3","size_leaf_vector":"1"}},{"base_weights":[1.5941367E-2,4.222807E-2,-4.695351E-2],"categories":[],"categories_nodes":[],"categories_segments":[],"categories_sizes":[],"default_left":[0,0,0],"id":83,"left_children":[1,-1,-1],"loss_changes":[2.0210218E0,0E0,0E0],"parents":[2147483647,0,0],"right_children":[2,-1,-1],"split_conditions":[1.1916127E-1,4.222807E-2,-4.695351E-2],"split_indices":[2,0,0],"split_type":[0,0,0],"sum_hessian":[8.263894E0,4.6815968E0,3.5822976E0],"tree_param":{"num_deleted":"0","num_feature":"6","num_nodes":"3","size_leaf_vector":"1"}},{"base_weights":[-0E0,-4.041582E-2,5.1087607E-2],"categories":[],"categories_nodes":[],"categories_segments":[],"categories_sizes":[],"default_left":[0,0,0],"id":84,"left_children":[1,-1,-1],"loss_changes":[2.0702302E0,0E0,0E0],"parents":[2147483647,0,0],"right_children":[2,-1,-1],"split_conditions":[2.019957E-1,-4.041582E-2,5.1087607E-2],"split_indices":[4,0,0],"split_type":[0,0,0],"sum_hessian":[8.046067E0,4.6501136E0,3.3959537E0],"tree_param":{"num_deleted":"0","num_feature":"6","num_nodes":"3","size_leaf_vector":"1"}},{"base_weights":[9.169168E-3,-3.482916E-2,5.096524E-2],"categories":[],"categories_nodes":[],"categories_segments":[],"categories_sizes":[],"default_left":[0,0,0],"id":85,"left_children":[1,-1,-1],"loss_changes":[1.7553966E0,0E0,0E0],"parents":[2147483647,0,0],"right_children":[2,-1,-1],"split_conditions":[2.0568568E-1,-3.482916E-2,5.096524E-2],"split_indices":[4,0,0],"split_type":[0,0,0],"sum_hessian":[7.7296023E0,4.5699115E0,3.1596906E0],"tree_param":{"num_deleted":"0","num_feature":"6","num_nodes":"3","size_leaf_vector":"1"}},{"base_weights":[5.280931E-3,-3.671305E-2,5.5587094E-2],"categories":[],"categories_nodes":[],"categories_segments":[],"categories_sizes":[],"default_left":[0,0,0],"id":86,"left_children":[1,-1,-1],"loss_changes":[2.0111918E0,0E0,0E0],"parents":[2147483647,0,0],"right_children":[2,-1,-1],"split_conditions":[1E0,-3.671305E-2,5.5587094E-2],"split_indices":[5,0,0],"split_type":[0,0,0],"sum_hessian":[7.7211666E0,4.696262E0,3.0249045E0],"tree_param":{"num_deleted":"0","num_feature":"6","num_nodes":"3","size_leaf_vector":"1"}},{"base_weights":[2.500967E-3,3.666431E-2,-3.9756067E-2],"categories":[],"categories_nodes":[],"categories_segments":[],"categories_sizes":[],"default_left":[0,0,0],"id":87,"left_children":[1,-1,-1],"loss_changes":[1.3955115E0,0E0,0E0],"parents":[2147483647,0,0],"right_children":[2,-1,-1],"split_conditions":[1.1916127E-1,3.666431E-2,-3.9756067E-2],"split_indices":[2,0,0],"split_type":[0,0,0],"sum_hessian":[7.59999E0,4.153189E0,3.4468005E0],"tree_param":{"num_deleted":"0","num_feature":"6","num_nodes":"3","size_leaf_vector":"1"}},{"base_weights":[9.582615E-3,-3.428267E-2,5.0235838E-2],"categories":[],"categories_nodes":[],"categories_segments":[],"categories_sizes":[],"default_left":[0,0,0],"id":88,"left_children":[1,-1,-1],"loss_changes":[1.6490748E0,0E0,0E0],"parents":[2147483647,0,0],"right_children":[2,-1,-1],"split_conditions":[2.115042E-1,-3.428267E-2,5.0235838E-2],"split_indices":[4,0,0],"split_type":[0,0,0],"sum_hessian":[7.4124737E0,4.380859E0,3.0316148E0],"tree_param":{"num_deleted":"0","num_feature":"6","num_nodes":"3","size_leaf_vector":"1"}},{"base_weights":[2.279476E-2,3.7044387E-2,-3.563341E-2],"categories":[],"categories_nodes":[],"categories_segments":[],"categories_sizes":[],"default_left":[0,0,0],"id":89,"left_children":[1,-1,-1],"loss_changes":[1.224509E0,0E0,0E0],"parents":[2147483647,0,0],"right_children":[2,-1,-1],"split_conditions":[1.1916127E-1,3.7044387E-2,-3.563341E-2],"split_indices":[2,0,0],"split_type":[0,0,0],"sum_hessian":[7.278185E0,3.9462602E0,3.3319244E0],"tree_param":{"num_deleted":"0","num_feature":"6","num_nodes":"3","size_leaf_vector":"1"}},{"base_weights":[1.1674732E-2,3.65122E-2,-3.6792144E-2],"categories":[],"categories_nodes":[],"categories_segments":[],"categories_sizes":[],"default_left":[0,0,0],"id":90,"left_children":[1,-1,-1],"loss_changes":[1.1964912E0,0E0,0E0],"parents":[2147483647,0,0],"right_children":[2,-1,-1],"split_conditions":[1.1916127E-1,3.65122E-2,-3.6792144E-2],"split_indices":[2,0,0],"split_type":[0,0,0],"sum_hessian":[6.918738E0,3.7389333E0,3.1798043E0],"tree_param":{"num_deleted":"0","num_feature":"6","num_nodes":"3","size_leaf_vector":"1"}},{"base_weights":[1.0627075E-2,-3.5936814E-2,3.990015E-2],"categories":[],"categories_nodes":[],"categories_segments":[],"categories_sizes":[],"default_left":[0,0,0],"id":91,"left_children":[1,-1,-1],"loss_changes":[1.2647436E0,0E0,0E0],"parents":[2147483647,0,0],"right_children":[2,-1,-1],"split_conditions":[1.6518599E-1,-3.5936814E-2,3.990015E-2],"split_indices":[4,0,0],"split_type":[0,0,0],"sum_hessian":[6.776046E0,3.3765182E0,3.3995273E0],"tree_param":{"num_deleted":"0","num_feature":"6","num_nodes":"3","size_leaf_vector":"1"}},{"base_weights":[-0E0,-3.427929E-2,3.6532145E-2],"categories":[],"categories_nodes":[],"categories_segments":[],"categories_sizes":[],"default_left":[0,0,0],"id":92,"left_children":[1,-1,-1],"loss_changes":[1.0806293E0,0E0,0E0],"parents":[2147483647,0,0],"right_children":[2,-1,-1],"split_conditions":[1.0330809E-1,-3.427929E-2,3.6532145E-2],"split_indices":[3,0,0],"split_type":[0,0,0],"sum_hessian":[6.6219826E0,3.39161E0,3.2303727E0],"tree_param":{"num_deleted":"0","num_feature":"6","num_nodes":"3","size_leaf_vector":"1"}},{"base_weights":[7.2593503E-3,3.341971E-2,-3.310613E-2],"categories":[],"categories_nodes":[],"categories_segments":[],"categories_sizes":[],"default_left":[0,0,0],"id":93,"left_children":[1,-1,-1],"loss_changes":[9.591065E-1,0E0,0E0],"parents":[2147483647,0,0],"right_children":[2,-1,-1],"split_conditions":[1.1916127E-1,3.341971E-2,-3.310613E-2],"split_indices":[2,0,0],"split_type":[0,0,0],"sum_hessian":[6.6679754E0,3.54755E0,3.1204257E0],"tree_param":{"num_deleted":"0","num_feature":"6","num_nodes":"3","size_leaf_vector":"1"}},{"base_weights":[-0E0,-3.3251982E-2,3.449617E-2],"categories":[],"categories_nodes":[],"categories_segments":[],"categories_sizes":[],"default_left":[0,0,0],"id":94,"left_children":[1,-1,-1],"loss_changes":[9.822115E-1,0E0,0E0],"parents":[2147483647,0,0],"right_children":[2,-1,-1],"split_conditions":[1.0330809E-1,-3.3251982E-2,3.449617E-2],"split_indices":[3,0,0],"split_type":[0,0,0],"sum_hessian":[6.552879E0,3.219747E0,3.333132E0],"tree_param":{"num_deleted":"0","num_feature":"6","num_nodes":"3","size_leaf_vector":"1"}},{"base_weights":[-2.8736051E-3,-3.6271695E-2,3.509493E-2],"categories":[],"categories_nodes":[],"categories_segments":[],"categories_sizes":[],"default_left":[0,0,0],"id":95,"left_children":[1,-1,-1],"loss_changes":[1.0739969E0,0E0,0E0],"parents":[2147483647,0,0],"right_children":[2,-1,-1],"split_conditions":[1.6518599E-1,-3.6271695E-2,3.509493E-2],"split_indices":[4,0,0],"split_type":[0,0,0],"sum_hessian":[6.426317E0,3.313712E0,3.1126053E0],"tree_param":{"num_deleted":"0","num_feature":"6","num_nodes":"3","size_leaf_vector":"1"}},{"base_weights":[-0E0,-2.3404304E-2,2.1739103E-2],"categories":[],"categories_nodes":[],"categories_segments":[],"categories_sizes":[],"default_left":[0,0,0],"id":96,"left_children":[1,-1,-1],"loss_changes":[4.2033225E-1,0E0,0E0],"parents":[2147483647,0,0],"right_children":[2,-1,-1],"split_conditions":[1.8131377E-1,-2.3404304E-2,2.1739103E-2],"split_indices":[0,0,0],"split_type":[0,0,0],"sum_hessian":[6.2491984E0,3.0552633E0,3.1939352E0],"tree_param":{"num_deleted":"0","num_feature":"6","num_nodes":"3","size_leaf_vector":"1"}},{"base_weights":[-0E0,-3.16105E-2,3.3149417E-2],"categories":[],"categories_nodes":[],"categories_segments":[],"categories_sizes":[],"default_left":[0,0,0],"id":97,"left_children":[1,-1,-1],"loss_changes":[8.757682E-1,0E0,0E0],"parents":[2147483647,0,0],"right_children":[2,-1,-1],"split_conditions":[1.6625042E-1,-3.16105E-2,3.3149417E-2],"split_indices":[4,0,0],"split_type":[0,0,0],"sum_hessian":[6.3551235E0,3.250725E0,3.1043987E0],"tree_param":{"num_deleted":"0","num_feature":"6","num_nodes":"3","size_leaf_vector":"1"}},{"base_weights":[2.9967483E-2],"categories":[],"categories_nodes":[],"categories_segments":[],"categories_sizes":[],"default_left":[0],"id":98,"left_children":[-1],"loss_changes":[0E0],"parents":[2147483647],"right_children":[-1],"split_conditions":[2.9967483E-3],"split_indices":[0],"split_type":[0],"sum_hessian":[5.982597E0],"tree_param":{"num_deleted":"0","num_feature":"6","num_nodes":"1","size_leaf_vector":"1"}},{"base_weights":[-0E0,-2.7875338E-2,3.0718187E-2],"categories":[],"categories_nodes":[],"categories_segments":[],"categories_sizes":[],"default_left":[0,0,0],"id":99,"left_children":[1,-1,-1],"loss_changes":[7.18948E-1,0E0,0E0],"parents":[2147483647,0,0],"right_children":[2,-1,-1],"split_conditions":[1.7031413E-1,-2.7875338E-2,3.0718187E-2],"split_indices":[4,0,0],"split_type":[0,0,0],"sum_hessian":[6.375925E0,3.2870288E0,3.088896E0],"tree_param":{"num_deleted":"0","num_feature":"6","num_nodes":"3","size_leaf_vector":"1"}},{"base_weights":[-2.2688324E-2,1.8440498E-2,-2.5832305E-2],"categories":[],"categories_nodes":[],"categories_segments":[],"categories_sizes":[],"default_left":[0,0,0],"id":100,"left_children":[1,-1,-1],"loss_changes":[4.0626696E-1,0E0,0E0],"parents":[2147483647,0,0],"right_children":[2,-1,-1],"split_conditions":[1.06806085E-1,1.8440498E-2,-2.5832305E-2],"split_indices":[2,0,0],"split_type":[0,0,0],"sum_hessian":[6.197763E0,3.188499E0,3.009264E0],"tree_param":{"num_deleted":"0","num_feature":"6","num_nodes":"3","size_leaf_vector":"1"}},{"base_weights":[-1.0959785E-2],"categories":[],"categories_nodes":[],"categories_segments":[],"categories_sizes":[],"default_left":[0],"id":101,"left_children":[-1],"loss_changes":[0E0],"parents":[2147483647],"right_children":[-1],"split_conditions":[-1.0959785E-3],"split_indices":[0],"split_type":[0],"sum_hessian":[5.9982786E0],"tree_param":{"num_deleted":"0","num_feature":"6","num_nodes":"1","size_leaf_vector":"1"}},{"base_weights":[-1.2107671E-2,-3.094368E-2,2.7480258E-2],"categories":[],"categories_nodes":[],"categories_segments":[],"categories_sizes":[],"default_left":[0,0,0],"id":102,"left_children":[1,-1,-1],"loss_changes":[7.067011E-1,0E0,0E0],"parents":[2147483647,0,0],"right_children":[2,-1,-1],"split_conditions":[1.145197E-1,-3.094368E-2,2.7480258E-2],"split_indices":[3,0,0],"split_type":[0,0,0],"sum_hessian":[6.24683E0,3.20032E0,3.04651E0],"tree_param":{"num_deleted":"0","num_feature":"6","num_nodes":"3","size_leaf_vector":"1"}},{"base_weights":[3.2356147E-2],"categories":[],"categories_nodes":[],"categories_segments":[],"categories_sizes":[],"default_left":[0],"id":103,"left_children":[-1],"loss_changes":[0E0],"parents":[2147483647],"right_children":[-1],"split_conditions":[3.2356146E-3],"split_indices":[0],"split_type":[0],"sum_hessian":[5.8228483E0],"tree_param":{"num_deleted":"0","num_feature":"6","num_nodes":"1","size_leaf_vector":"1"}},{"base_weights":[3.2314084E-2],"categories":[],"categories_nodes":[],"categories_segments":[],"categories_sizes":[],"default_left":[0],"id":104,"left_children":[-1],"loss_changes":[0E0],"parents":[2147483647],"right_children":[-1],"split_conditions":[3.2314085E-3],"split_indices":[0],"split_type":[0],"sum_hessian":[5.9775867E0],"tree_param":{"num_deleted":"0","num_feature":"6","num_nodes":"1","size_leaf_vector":"1"}},{"base_weights":[3.83034E-2,-2.717301E-2,3.6294464E-2],"categories":[],"categories_nodes":[],"categories_segments":[],"categories_sizes":[],"default_left":[0,0,0],"id":105,"left_children":[1,-1,-1],"loss_changes":[8.1447005E-1,0E0,0E0],"parents":[2147483647,0,0],"right_children":[2,-1,-1],"split_conditions":[1.0491045E-1,-2.717301E-2,3.6294464E-2],"split_indices":[3,0,0],"split_type":[0,0,0],"sum_hessian":[6.0216403E0,3.0059235E0,3.0157166E0],"tree_param":{"num_deleted":"0","num_feature":"6","num_nodes":"3","size_leaf_vector":"1"}},{"base_weights":[-0E0,-2.5276378E-2,2.382928E-2],"categories":[],"categories_nodes":[],"categories_segments":[],"categories_sizes":[],"default_left":[0,0,0],"id":106,"left_children":[1,-1,-1],"loss_changes":[4.8872775E-1,0E0,0E0],"parents":[2147483647,0,0],"right_children":[2,-1,-1],"split_conditions":[1.0794568E-1,-2.5276378E-2,2.382928E-2],"split_indices":[3,0,0],"split_type":[0,0,0],"sum_hessian":[6.0968294E0,3.0756454E0,3.0211837E0],"tree_param":{"num_deleted":"0","num_feature":"6","num_nodes":"3","size_leaf_vector":"1"}},{"base_weights":[-0E0],"categories":[],"categories_nodes":[],"categories_segments":[],"categories_sizes":[],"default_left":[0],"id":107,"left_children":[-1],"loss_changes":[0E0],"parents":[2147483647],"right_children":[-1],"split_conditions":[-0E0],"split_indices":[0],"split_type":[0],"sum_hessian":[5.989525E0],"tree_param":{"num_deleted":"0","num_feature":"6","num_nodes":"1","size_leaf_vector":"1"}},{"base_weights":[-0E0],"categories":[],"categories_nodes":[],"categories_segments":[],"categories_sizes":[],"default_left":[0],"id":108,"left_children":[-1],"loss_changes":[0E0],"parents":[2147483647],"right_children":[-1],"split_conditions":[-0E0],"split_indices":[0],"split_type":[0],"sum_hessian":[5.844545E0],"tree_param":{"num_deleted":"0","num_feature":"6","num_nodes":"1","size_leaf_vector":"1"}},{"base_weights":[-1.8154463E-2],"categories":[],"categories_nodes":[],"categories_segments":[],"categories_sizes":[],"default_left":[0],"id":109,"left_children":[-1],"loss_changes":[0E0],"parents":[2147483647],"right_children":[-1],"split_conditions":[-1.8154463E-3],"split_indices":[0],"split_type":[0],"sum_hessian":[5.9909444E0],"tree_param":{"num_deleted":"0","num_feature":"6","num_nodes":"1","size_leaf_vector":"1"}},{"base_weights":[-0E0],"categories":[],"categories_nodes":[],"categories_segments":[],"categories_sizes":[],"default_left":[0],"id":110,"left_children":[-1],"loss_changes":[0E0],"parents":[2147483647],"right_children":[-1],"split_conditions":[-0E0],"split_indices":[0],"split_type":[0],"sum_hessian":[5.9636197E0],"tree_param":{"num_deleted":"0","num_feature":"6","num_nodes":"1","size_leaf_vector":"1"}},{"base_weights":[-0E0,-2.9102221E-2,2.9672254E-2],"categories":[],"categories_nodes":[],"categories_segments":[],"categories_sizes":[],"default_left":[0,0,0],"id":111,"left_children":[1,-1,-1],"loss_changes":[6.9461834E-1,0E0,0E0],"parents":[2147483647,0,0],"right_children":[2,-1,-1],"split_conditions":[1.6160539E-1,-2.9102221E-2,2.9672254E-2],"split_indices":[4,0,0],"split_type":[0,0,0],"sum_hessian":[6.043209E0,3.0414166E0,3.0017927E0],"tree_param":{"num_deleted":"0","num_feature":"6","num_nodes":"3","size_leaf_vector":"1"}},{"base_weights":[-1.5483667E-4,-2.7650762E-2,2.574726E-2],"categories":[],"categories_nodes":[],"categories_segments":[],"categories_sizes":[],"default_left":[0,0,0],"id":112,"left_children":[1,-1,-1],"loss_changes":[5.786508E-1,0E0,0E0],"parents":[2147483647,0,0],"right_children":[2,-1,-1],"split_conditions":[1.6041145E-1,-2.7650762E-2,2.574726E-2],"split_indices":[4,0,0],"split_type":[0,0,0],"sum_hessian":[6.1008735E0,3.095381E0,3.0054924E0],"tree_param":{"num_deleted":"0","num_feature":"6","num_nodes":"3","size_leaf_vector":"1"}},{"base_weights":[3.26542E-2],"categories":[],"categories_nodes":[],"categories_segments":[],"categories_sizes":[],"default_left":[0],"id":113,"left_children":[-1],"loss_changes":[0E0],"parents":[2147483647],"right_children":[-1],"split_conditions":[3.26542E-3],"split_indices":[0],"split_type":[0],"sum_hessian":[5.741966E0],"tree_param":{"num_deleted":"0","num_feature":"6","num_nodes":"1","size_leaf_vector":"1"}},{"base_weights":[-2.2648733E-2,-2.7845254E-2,2.147407E-2],"categories":[],"categories_nodes":[],"categories_segments":[],"categories_sizes":[],"default_left":[0,0,0],"id":114,"left_children":[1,-1,-1],"loss_changes":[4.934934E-1,0E0,0E0],"parents":[2147483647,0,0],"right_children":[2,-1,-1],